|--- search_basis_other <= 0.50
|   |--- contraband_found <= 0.50
|   |   |--- search_vehicle <= 0.50
|   |   |   |--- search_basis_plain view <= 0.50
|   |   |   |   |--- subject_race_hispanic <= 0.50
|   |   |   |   |   |--- reason_for_stop_vehicle equipment violation <= 0.50
|   |   |   |   |   |   |--- frisk_performed <= 0.50
|   |   |   |   |   |   |   |--- subject_sex <= 0.50
|   |   |   |   |   |   |   |   |--- month <= 5.50
|   |   |   |   |   |   |   |   |   |--- weekend <= 0.50
|   |   |   |   |   |   |   |   |   |   |--- subject_age <= 20.00
|   |   |   |   |   |   |   |   |   |   |   |--- weights: [34.00, 0.00, 0.00] class: arrest
|   |   |   |   |   |   |   |   |   |   |--- subject_age >  20.00
|   |   |   |   |   |   |   |   |   |   |   |--- subject_race_black <= 0.50
|   |   |   |   |   |   |   |   |   |   |   |   |--- reason_for_stop_registration <= 0.50
|   |   |   |   |   |   |   |   |   |   |   |   |   |--- weights: [0.00, 0.00, 60.00] class: warning
|   |   |   |   |   |   |   |   |   |   |   |   |--- reason_for_stop_registration >  0.50
|   |   |   |   |   |   |   |   |   |   |   |   |   |--- weights: [0.00, 19.00, 0.00] class: citation
|   |   |   |   |   |   |   |   |   |   |   |--- subject_race_black >  0.50
|   |   |   |   |   |   |   |   |   |   |   |   |--- search_basis_consent <= 0.50
|   |   |   |   |   |   |   |   |   |   |   |   |   |--- month <= 1.50
|   |   |   |   |   |   |   |   |   |   |   |   |   |   |--- weights: [0.00, 0.00, 17.00] class: warning
|   |   |   |   |   |   |   |   |   |   |   |   |   |--- month >  1.50
|   |   |   |   |   |   |   |   |   |   |   |   |   |   |--- weights: [22.00, 0.00, 0.00] class: arrest
|   |   |   |   |   |   |   |   |   |   |   |   |--- search_basis_consent >  0.50
|   |   |   |   |   |   |   |   |   |   |   |   |   |--- dayofmonth <= 18.50
|   |   |   |   |   |   |   |   |   |   |   |   |   |   |--- weights: [0.00, 91.00, 0.00] class: citation
|   |   |   |   |   |   |   |   |   |   |   |   |   |--- dayofmonth >  18.50
|   |   |   |   |   |   |   |   |   |   |   |   |   |   |--- dayofmonth <= 23.50
|   |   |   |   |   |   |   |   |   |   |   |   |   |   |   |--- weights: [0.00, 0.00, 16.00] class: warning
|   |   |   |   |   |   |   |   |   |   |   |   |   |   |--- dayofmonth >  23.50
|   |   |   |   |   |   |   |   |   |   |   |   |   |   |   |--- weights: [0.00, 50.00, 0.00] class: citation
|   |   |   |   |   |   |   |   |   |--- weekend >  0.50
|   |   |   |   |   |   |   |   |   |   |--- month <= 1.50
|   |   |   |   |   |   |   |   |   |   |   |--- weights: [16.00, 0.00, 0.00] class: arrest
|   |   |   |   |   |   |   |   |   |   |--- month >  1.50
|   |   |   |   |   |   |   |   |   |   |   |--- reason_for_stop_safety violation <= 0.50
|   |   |   |   |   |   |   |   |   |   |   |   |--- subject_age <= 36.50
|   |   |   |   |   |   |   |   |   |   |   |   |   |--- weights: [0.00, 0.00, 84.00] class: warning
|   |   |   |   |   |   |   |   |   |   |   |   |--- subject_age >  36.50
|   |   |   |   |   |   |   |   |   |   |   |   |   |--- dayofmonth <= 17.00
|   |   |   |   |   |   |   |   |   |   |   |   |   |   |--- weights: [18.00, 0.00, 0.00] class: arrest
|   |   |   |   |   |   |   |   |   |   |   |   |   |--- dayofmonth >  17.00
|   |   |   |   |   |   |   |   |   |   |   |   |   |   |--- weights: [0.00, 0.00, 19.00] class: warning
|   |   |   |   |   |   |   |   |   |   |   |--- reason_for_stop_safety violation >  0.50
|   |   |   |   |   |   |   |   |   |   |   |   |--- subject_age <= 37.00
|   |   |   |   |   |   |   |   |   |   |   |   |   |--- weights: [0.00, 18.00, 0.00] class: citation
|   |   |   |   |   |   |   |   |   |   |   |   |--- subject_age >  37.00
|   |   |   |   |   |   |   |   |   |   |   |   |   |--- weights: [0.00, 0.00, 16.00] class: warning
|   |   |   |   |   |   |   |   |--- month >  5.50
|   |   |   |   |   |   |   |   |   |--- month <= 10.50
|   |   |   |   |   |   |   |   |   |   |--- dayofmonth <= 23.00
|   |   |   |   |   |   |   |   |   |   |   |--- month <= 7.50
|   |   |   |   |   |   |   |   |   |   |   |   |--- reason_for_stop_moving traffic violation <= 0.50
|   |   |   |   |   |   |   |   |   |   |   |   |   |--- weights: [58.00, 0.00, 0.00] class: arrest
|   |   |   |   |   |   |   |   |   |   |   |   |--- reason_for_stop_moving traffic violation >  0.50
|   |   |   |   |   |   |   |   |   |   |   |   |   |--- dayofmonth <= 15.00
|   |   |   |   |   |   |   |   |   |   |   |   |   |   |--- weights: [37.00, 0.00, 0.00] class: arrest
|   |   |   |   |   |   |   |   |   |   |   |   |   |--- dayofmonth >  15.00
|   |   |   |   |   |   |   |   |   |   |   |   |   |   |--- weights: [0.00, 9.00, 0.00] class: citation
|   |   |   |   |   |   |   |   |   |   |   |--- month >  7.50
|   |   |   |   |   |   |   |   |   |   |   |   |--- subject_age <= 41.50
|   |   |   |   |   |   |   |   |   |   |   |   |   |--- subject_age <= 23.00
|   |   |   |   |   |   |   |   |   |   |   |   |   |   |--- weights: [0.00, 0.00, 32.00] class: warning
|   |   |   |   |   |   |   |   |   |   |   |   |   |--- subject_age >  23.00
|   |   |   |   |   |   |   |   |   |   |   |   |   |   |--- reason_for_stop_registration <= 0.50
|   |   |   |   |   |   |   |   |   |   |   |   |   |   |   |--- weights: [85.00, 0.00, 0.00] class: arrest
|   |   |   |   |   |   |   |   |   |   |   |   |   |   |--- reason_for_stop_registration >  0.50
|   |   |   |   |   |   |   |   |   |   |   |   |   |   |   |--- weights: [0.00, 12.00, 0.00] class: citation
|   |   |   |   |   |   |   |   |   |   |   |   |--- subject_age >  41.50
|   |   |   |   |   |   |   |   |   |   |   |   |   |--- dayofmonth <= 11.50
|   |   |   |   |   |   |   |   |   |   |   |   |   |   |--- weights: [0.00, 17.00, 0.00] class: citation
|   |   |   |   |   |   |   |   |   |   |   |   |   |--- dayofmonth >  11.50
|   |   |   |   |   |   |   |   |   |   |   |   |   |   |--- weights: [0.00, 0.00, 41.00] class: warning
|   |   |   |   |   |   |   |   |   |   |--- dayofmonth >  23.00
|   |   |   |   |   |   |   |   |   |   |   |--- subject_age <= 35.00
|   |   |   |   |   |   |   |   |   |   |   |   |--- weights: [0.00, 0.00, 58.00] class: warning
|   |   |   |   |   |   |   |   |   |   |   |--- subject_age >  35.00
|   |   |   |   |   |   |   |   |   |   |   |   |--- weights: [17.00, 0.00, 0.00] class: arrest
|   |   |   |   |   |   |   |   |   |--- month >  10.50
|   |   |   |   |   |   |   |   |   |   |--- subject_age <= 28.00
|   |   |   |   |   |   |   |   |   |   |   |--- weights: [0.00, 55.00, 0.00] class: citation
|   |   |   |   |   |   |   |   |   |   |--- subject_age >  28.00
|   |   |   |   |   |   |   |   |   |   |   |--- subject_age <= 44.50
|   |   |   |   |   |   |   |   |   |   |   |   |--- weights: [0.00, 0.00, 32.00] class: warning
|   |   |   |   |   |   |   |   |   |   |   |--- subject_age >  44.50
|   |   |   |   |   |   |   |   |   |   |   |   |--- weekend <= 0.50
|   |   |   |   |   |   |   |   |   |   |   |   |   |--- weights: [35.00, 0.00, 0.00] class: arrest
|   |   |   |   |   |   |   |   |   |   |   |   |--- weekend >  0.50
|   |   |   |   |   |   |   |   |   |   |   |   |   |--- weights: [0.00, 17.00, 0.00] class: citation
|   |   |   |   |   |   |   |--- subject_sex >  0.50
|   |   |   |   |   |   |   |   |--- subject_age <= 23.50
|   |   |   |   |   |   |   |   |   |--- dayofmonth <= 16.50
|   |   |   |   |   |   |   |   |   |   |--- month <= 4.50
|   |   |   |   |   |   |   |   |   |   |   |--- subject_age <= 22.00
|   |   |   |   |   |   |   |   |   |   |   |   |--- dayofmonth <= 12.50
|   |   |   |   |   |   |   |   |   |   |   |   |   |--- subject_age <= 18.50
|   |   |   |   |   |   |   |   |   |   |   |   |   |   |--- subject_race_black <= 0.50
|   |   |   |   |   |   |   |   |   |   |   |   |   |   |   |--- weights: [0.00, 0.00, 12.00] class: warning
|   |   |   |   |   |   |   |   |   |   |   |   |   |   |--- subject_race_black >  0.50
|   |   |   |   |   |   |   |   |   |   |   |   |   |   |   |--- weights: [0.00, 24.00, 0.00] class: citation
|   |   |   |   |   |   |   |   |   |   |   |   |   |--- subject_age >  18.50
|   |   |   |   |   |   |   |   |   |   |   |   |   |   |--- weights: [0.00, 98.00, 0.00] class: citation
|   |   |   |   |   |   |   |   |   |   |   |   |--- dayofmonth >  12.50
|   |   |   |   |   |   |   |   |   |   |   |   |   |--- weights: [0.00, 0.00, 11.00] class: warning
|   |   |   |   |   |   |   |   |   |   |   |--- subject_age >  22.00
|   |   |   |   |   |   |   |   |   |   |   |   |--- weights: [0.00, 0.00, 19.00] class: warning
|   |   |   |   |   |   |   |   |   |   |--- month >  4.50
|   |   |   |   |   |   |   |   |   |   |   |--- reason_for_stop_registration <= 0.50
|   |   |   |   |   |   |   |   |   |   |   |   |--- reason_for_stop_seatbelt violation <= 0.50
|   |   |   |   |   |   |   |   |   |   |   |   |   |--- subject_age <= 18.50
|   |   |   |   |   |   |   |   |   |   |   |   |   |   |--- weights: [0.00, 0.00, 34.00] class: warning
|   |   |   |   |   |   |   |   |   |   |   |   |   |--- subject_age >  18.50
|   |   |   |   |   |   |   |   |   |   |   |   |   |   |--- month <= 7.50
|   |   |   |   |   |   |   |   |   |   |   |   |   |   |   |--- search_basis_probable cause <= 0.50
|   |   |   |   |   |   |   |   |   |   |   |   |   |   |   |   |--- month <= 5.50
|   |   |   |   |   |   |   |   |   |   |   |   |   |   |   |   |   |--- subject_age <= 19.50
|   |   |   |   |   |   |   |   |   |   |   |   |   |   |   |   |   |   |--- weights: [0.00, 17.00, 0.00] class: citation
|   |   |   |   |   |   |   |   |   |   |   |   |   |   |   |   |   |--- subject_age >  19.50
|   |   |   |   |   |   |   |   |   |   |   |   |   |   |   |   |   |   |--- dayofmonth <= 9.00
|   |   |   |   |   |   |   |   |   |   |   |   |   |   |   |   |   |   |   |--- subject_age <= 21.00
|   |   |   |   |   |   |   |   |   |   |   |   |   |   |   |   |   |   |   |   |--- weights: [0.00, 18.00, 0.00] class: citation
|   |   |   |   |   |   |   |   |   |   |   |   |   |   |   |   |   |   |   |--- subject_age >  21.00
|   |   |   |   |   |   |   |   |   |   |   |   |   |   |   |   |   |   |   |   |--- weights: [0.00, 0.00, 16.00] class: warning
|   |   |   |   |   |   |   |   |   |   |   |   |   |   |   |   |   |   |--- dayofmonth >  9.00
|   |   |   |   |   |   |   |   |   |   |   |   |   |   |   |   |   |   |   |--- weights: [0.00, 0.00, 18.00] class: warning
|   |   |   |   |   |   |   |   |   |   |   |   |   |   |   |   |--- month >  5.50
|   |   |   |   |   |   |   |   |   |   |   |   |   |   |   |   |   |--- reason_for_stop_safety violation <= 0.50
|   |   |   |   |   |   |   |   |   |   |   |   |   |   |   |   |   |   |--- weights: [0.00, 0.00, 88.00] class: warning
|   |   |   |   |   |   |   |   |   |   |   |   |   |   |   |   |   |--- reason_for_stop_safety violation >  0.50
|   |   |   |   |   |   |   |   |   |   |   |   |   |   |   |   |   |   |--- weights: [0.00, 11.00, 0.00] class: citation
|   |   |   |   |   |   |   |   |   |   |   |   |   |   |   |--- search_basis_probable cause >  0.50
|   |   |   |   |   |   |   |   |   |   |   |   |   |   |   |   |--- weights: [0.00, 16.00, 0.00] class: citation
|   |   |   |   |   |   |   |   |   |   |   |   |   |   |--- month >  7.50
|   |   |   |   |   |   |   |   |   |   |   |   |   |   |   |--- reason_for_stop_moving traffic violation <= 0.50
|   |   |   |   |   |   |   |   |   |   |   |   |   |   |   |   |--- subject_age <= 22.00
|   |   |   |   |   |   |   |   |   |   |   |   |   |   |   |   |   |--- month <= 9.50
|   |   |   |   |   |   |   |   |   |   |   |   |   |   |   |   |   |   |--- weights: [0.00, 45.00, 0.00] class: citation
|   |   |   |   |   |   |   |   |   |   |   |   |   |   |   |   |   |--- month >  9.50
|   |   |   |   |   |   |   |   |   |   |   |   |   |   |   |   |   |   |--- weights: [0.00, 0.00, 32.00] class: warning
|   |   |   |   |   |   |   |   |   |   |   |   |   |   |   |   |--- subject_age >  22.00
|   |   |   |   |   |   |   |   |   |   |   |   |   |   |   |   |   |--- weights: [0.00, 0.00, 49.00] class: warning
|   |   |   |   |   |   |   |   |   |   |   |   |   |   |   |--- reason_for_stop_moving traffic violation >  0.50
|   |   |   |   |   |   |   |   |   |   |   |   |   |   |   |   |--- weights: [0.00, 81.00, 0.00] class: citation
|   |   |   |   |   |   |   |   |   |   |   |   |--- reason_for_stop_seatbelt violation >  0.50
|   |   |   |   |   |   |   |   |   |   |   |   |   |--- weights: [0.00, 0.00, 35.00] class: warning
|   |   |   |   |   |   |   |   |   |   |   |--- reason_for_stop_registration >  0.50
|   |   |   |   |   |   |   |   |   |   |   |   |--- weights: [0.00, 0.00, 58.00] class: warning
|   |   |   |   |   |   |   |   |   |--- dayofmonth >  16.50
|   |   |   |   |   |   |   |   |   |   |--- dayofmonth <= 29.50
|   |   |   |   |   |   |   |   |   |   |   |--- dayofmonth <= 28.50
|   |   |   |   |   |   |   |   |   |   |   |   |--- month <= 3.50
|   |   |   |   |   |   |   |   |   |   |   |   |   |--- reason_for_stop_moving traffic violation <= 0.50
|   |   |   |   |   |   |   |   |   |   |   |   |   |   |--- subject_age <= 19.50
|   |   |   |   |   |   |   |   |   |   |   |   |   |   |   |--- weights: [0.00, 9.00, 0.00] class: citation
|   |   |   |   |   |   |   |   |   |   |   |   |   |   |--- subject_age >  19.50
|   |   |   |   |   |   |   |   |   |   |   |   |   |   |   |--- month <= 1.50
|   |   |   |   |   |   |   |   |   |   |   |   |   |   |   |   |--- subject_race_white <= 0.50
|   |   |   |   |   |   |   |   |   |   |   |   |   |   |   |   |   |--- weights: [0.00, 13.00, 0.00] class: citation
|   |   |   |   |   |   |   |   |   |   |   |   |   |   |   |   |--- subject_race_white >  0.50
|   |   |   |   |   |   |   |   |   |   |   |   |   |   |   |   |   |--- weights: [0.00, 0.00, 20.00] class: warning
|   |   |   |   |   |   |   |   |   |   |   |   |   |   |   |--- month >  1.50
|   |   |   |   |   |   |   |   |   |   |   |   |   |   |   |   |--- subject_race_white <= 0.50
|   |   |   |   |   |   |   |   |   |   |   |   |   |   |   |   |   |--- weights: [0.00, 0.00, 47.00] class: warning
|   |   |   |   |   |   |   |   |   |   |   |   |   |   |   |   |--- subject_race_white >  0.50
|   |   |   |   |   |   |   |   |   |   |   |   |   |   |   |   |   |--- subject_age <= 21.50
|   |   |   |   |   |   |   |   |   |   |   |   |   |   |   |   |   |   |--- weights: [14.00, 0.00, 0.00] class: arrest
|   |   |   |   |   |   |   |   |   |   |   |   |   |   |   |   |   |--- subject_age >  21.50
|   |   |   |   |   |   |   |   |   |   |   |   |   |   |   |   |   |   |--- weights: [0.00, 0.00, 18.00] class: warning
|   |   |   |   |   |   |   |   |   |   |   |   |   |--- reason_for_stop_moving traffic violation >  0.50
|   |   |   |   |   |   |   |   |   |   |   |   |   |   |--- month <= 2.00
|   |   |   |   |   |   |   |   |   |   |   |   |   |   |   |--- weights: [0.00, 52.00, 0.00] class: citation
|   |   |   |   |   |   |   |   |   |   |   |   |   |   |--- month >  2.00
|   |   |   |   |   |   |   |   |   |   |   |   |   |   |   |--- dayofmonth <= 18.50
|   |   |   |   |   |   |   |   |   |   |   |   |   |   |   |   |--- weights: [0.00, 14.00, 0.00] class: citation
|   |   |   |   |   |   |   |   |   |   |   |   |   |   |   |--- dayofmonth >  18.50
|   |   |   |   |   |   |   |   |   |   |   |   |   |   |   |   |--- weights: [0.00, 0.00, 17.00] class: warning
|   |   |   |   |   |   |   |   |   |   |   |   |--- month >  3.50
|   |   |   |   |   |   |   |   |   |   |   |   |   |--- subject_age <= 19.50
|   |   |   |   |   |   |   |   |   |   |   |   |   |   |--- subject_age <= 17.50
|   |   |   |   |   |   |   |   |   |   |   |   |   |   |   |--- weights: [16.00, 0.00, 0.00] class: arrest
|   |   |   |   |   |   |   |   |   |   |   |   |   |   |--- subject_age >  17.50
|   |   |   |   |   |   |   |   |   |   |   |   |   |   |   |--- month <= 9.00
|   |   |   |   |   |   |   |   |   |   |   |   |   |   |   |   |--- weights: [0.00, 37.00, 0.00] class: citation
|   |   |   |   |   |   |   |   |   |   |   |   |   |   |   |--- month >  9.00
|   |   |   |   |   |   |   |   |   |   |   |   |   |   |   |   |--- weights: [0.00, 0.00, 12.00] class: warning
|   |   |   |   |   |   |   |   |   |   |   |   |   |--- subject_age >  19.50
|   |   |   |   |   |   |   |   |   |   |   |   |   |   |--- subject_race_white <= 0.50
|   |   |   |   |   |   |   |   |   |   |   |   |   |   |   |--- weights: [63.00, 0.00, 0.00] class: arrest
|   |   |   |   |   |   |   |   |   |   |   |   |   |   |--- subject_race_white >  0.50
|   |   |   |   |   |   |   |   |   |   |   |   |   |   |   |--- weights: [0.00, 14.00, 0.00] class: citation
|   |   |   |   |   |   |   |   |   |   |   |--- dayofmonth >  28.50
|   |   |   |   |   |   |   |   |   |   |   |   |--- weights: [0.00, 100.00, 0.00] class: citation
|   |   |   |   |   |   |   |   |   |   |--- dayofmonth >  29.50
|   |   |   |   |   |   |   |   |   |   |   |--- reason_for_stop_investigative stop <= 0.50
|   |   |   |   |   |   |   |   |   |   |   |   |--- weights: [0.00, 0.00, 42.00] class: warning
|   |   |   |   |   |   |   |   |   |   |   |--- reason_for_stop_investigative stop >  0.50
|   |   |   |   |   |   |   |   |   |   |   |   |--- weights: [10.00, 0.00, 0.00] class: arrest
|   |   |   |   |   |   |   |   |--- subject_age >  23.50
|   |   |   |   |   |   |   |   |   |--- subject_age <= 41.50
|   |   |   |   |   |   |   |   |   |   |--- search_basis_probable cause <= 0.50
|   |   |   |   |   |   |   |   |   |   |   |--- weekend <= 0.50
|   |   |   |   |   |   |   |   |   |   |   |   |--- reason_for_stop_seatbelt violation <= 0.50
|   |   |   |   |   |   |   |   |   |   |   |   |   |--- reason_for_stop_investigative stop <= 0.50
|   |   |   |   |   |   |   |   |   |   |   |   |   |   |--- subject_age <= 32.50
|   |   |   |   |   |   |   |   |   |   |   |   |   |   |   |--- month <= 8.50
|   |   |   |   |   |   |   |   |   |   |   |   |   |   |   |   |--- reason_for_stop_parking violation <= 0.50
|   |   |   |   |   |   |   |   |   |   |   |   |   |   |   |   |   |--- dayofmonth <= 28.00
|   |   |   |   |   |   |   |   |   |   |   |   |   |   |   |   |   |   |--- reason_for_stop_moving traffic violation <= 0.50
|   |   |   |   |   |   |   |   |   |   |   |   |   |   |   |   |   |   |   |--- subject_age <= 29.50
|   |   |   |   |   |   |   |   |   |   |   |   |   |   |   |   |   |   |   |   |--- dayofmonth <= 15.00
|   |   |   |   |   |   |   |   |   |   |   |   |   |   |   |   |   |   |   |   |   |--- subject_race_white <= 0.50
|   |   |   |   |   |   |   |   |   |   |   |   |   |   |   |   |   |   |   |   |   |   |--- weights: [31.00, 0.00, 0.00] class: arrest
|   |   |   |   |   |   |   |   |   |   |   |   |   |   |   |   |   |   |   |   |   |--- subject_race_white >  0.50
|   |   |   |   |   |   |   |   |   |   |   |   |   |   |   |   |   |   |   |   |   |   |--- weights: [0.00, 0.00, 11.00] class: warning
|   |   |   |   |   |   |   |   |   |   |   |   |   |   |   |   |   |   |   |   |--- dayofmonth >  15.00
|   |   |   |   |   |   |   |   |   |   |   |   |   |   |   |   |   |   |   |   |   |--- weights: [0.00, 40.00, 0.00] class: citation
|   |   |   |   |   |   |   |   |   |   |   |   |   |   |   |   |   |   |   |--- subject_age >  29.50
|   |   |   |   |   |   |   |   |   |   |   |   |   |   |   |   |   |   |   |   |--- weights: [0.00, 82.00, 0.00] class: citation
|   |   |   |   |   |   |   |   |   |   |   |   |   |   |   |   |   |   |--- reason_for_stop_moving traffic violation >  0.50
|   |   |   |   |   |   |   |   |   |   |   |   |   |   |   |   |   |   |   |--- subject_age <= 30.50
|   |   |   |   |   |   |   |   |   |   |   |   |   |   |   |   |   |   |   |   |--- weights: [0.00, 273.00, 0.00] class: citation
|   |   |   |   |   |   |   |   |   |   |   |   |   |   |   |   |   |   |   |--- subject_age >  30.50
|   |   |   |   |   |   |   |   |   |   |   |   |   |   |   |   |   |   |   |   |--- subject_race_black <= 0.50
|   |   |   |   |   |   |   |   |   |   |   |   |   |   |   |   |   |   |   |   |   |--- weights: [0.00, 61.00, 0.00] class: citation
|   |   |   |   |   |   |   |   |   |   |   |   |   |   |   |   |   |   |   |   |--- subject_race_black >  0.50
|   |   |   |   |   |   |   |   |   |   |   |   |   |   |   |   |   |   |   |   |   |--- month <= 2.00
|   |   |   |   |   |   |   |   |   |   |   |   |   |   |   |   |   |   |   |   |   |   |--- weights: [0.00, 19.00, 0.00] class: citation
|   |   |   |   |   |   |   |   |   |   |   |   |   |   |   |   |   |   |   |   |   |--- month >  2.00
|   |   |   |   |   |   |   |   |   |   |   |   |   |   |   |   |   |   |   |   |   |   |--- month <= 4.50
|   |   |   |   |   |   |   |   |   |   |   |   |   |   |   |   |   |   |   |   |   |   |   |--- weights: [0.00, 0.00, 17.00] class: warning
|   |   |   |   |   |   |   |   |   |   |   |   |   |   |   |   |   |   |   |   |   |   |--- month >  4.50
|   |   |   |   |   |   |   |   |   |   |   |   |   |   |   |   |   |   |   |   |   |   |   |--- weights: [0.00, 10.00, 0.00] class: citation
|   |   |   |   |   |   |   |   |   |   |   |   |   |   |   |   |   |--- dayofmonth >  28.00
|   |   |   |   |   |   |   |   |   |   |   |   |   |   |   |   |   |   |--- month <= 5.50
|   |   |   |   |   |   |   |   |   |   |   |   |   |   |   |   |   |   |   |--- weights: [0.00, 16.00, 0.00] class: citation
|   |   |   |   |   |   |   |   |   |   |   |   |   |   |   |   |   |   |--- month >  5.50
|   |   |   |   |   |   |   |   |   |   |   |   |   |   |   |   |   |   |   |--- reason_for_stop_registration <= 0.50
|   |   |   |   |   |   |   |   |   |   |   |   |   |   |   |   |   |   |   |   |--- weights: [19.00, 0.00, 0.00] class: arrest
|   |   |   |   |   |   |   |   |   |   |   |   |   |   |   |   |   |   |   |--- reason_for_stop_registration >  0.50
|   |   |   |   |   |   |   |   |   |   |   |   |   |   |   |   |   |   |   |   |--- weights: [0.00, 15.00, 0.00] class: citation
|   |   |   |   |   |   |   |   |   |   |   |   |   |   |   |   |--- reason_for_stop_parking violation >  0.50
|   |   |   |   |   |   |   |   |   |   |   |   |   |   |   |   |   |--- weights: [0.00, 0.00, 12.00] class: warning
|   |   |   |   |   |   |   |   |   |   |   |   |   |   |   |--- month >  8.50
|   |   |   |   |   |   |   |   |   |   |   |   |   |   |   |   |--- subject_race_black <= 0.50
|   |   |   |   |   |   |   |   |   |   |   |   |   |   |   |   |   |--- weights: [0.00, 37.00, 0.00] class: citation
|   |   |   |   |   |   |   |   |   |   |   |   |   |   |   |   |--- subject_race_black >  0.50
|   |   |   |   |   |   |   |   |   |   |   |   |   |   |   |   |   |--- month <= 11.50
|   |   |   |   |   |   |   |   |   |   |   |   |   |   |   |   |   |   |--- dayofmonth <= 8.50
|   |   |   |   |   |   |   |   |   |   |   |   |   |   |   |   |   |   |   |--- weights: [0.00, 0.00, 25.00] class: warning
|   |   |   |   |   |   |   |   |   |   |   |   |   |   |   |   |   |   |--- dayofmonth >  8.50
|   |   |   |   |   |   |   |   |   |   |   |   |   |   |   |   |   |   |   |--- dayofmonth <= 26.50
|   |   |   |   |   |   |   |   |   |   |   |   |   |   |   |   |   |   |   |   |--- month <= 9.50
|   |   |   |   |   |   |   |   |   |   |   |   |   |   |   |   |   |   |   |   |   |--- dayofmonth <= 23.50
|   |   |   |   |   |   |   |   |   |   |   |   |   |   |   |   |   |   |   |   |   |   |--- weights: [17.00, 0.00, 0.00] class: arrest
|   |   |   |   |   |   |   |   |   |   |   |   |   |   |   |   |   |   |   |   |   |--- dayofmonth >  23.50
|   |   |   |   |   |   |   |   |   |   |   |   |   |   |   |   |   |   |   |   |   |   |--- weights: [0.00, 12.00, 0.00] class: citation
|   |   |   |   |   |   |   |   |   |   |   |   |   |   |   |   |   |   |   |   |--- month >  9.50
|   |   |   |   |   |   |   |   |   |   |   |   |   |   |   |   |   |   |   |   |   |--- weights: [35.00, 0.00, 0.00] class: arrest
|   |   |   |   |   |   |   |   |   |   |   |   |   |   |   |   |   |   |   |--- dayofmonth >  26.50
|   |   |   |   |   |   |   |   |   |   |   |   |   |   |   |   |   |   |   |   |--- weights: [0.00, 0.00, 12.00] class: warning
|   |   |   |   |   |   |   |   |   |   |   |   |   |   |   |   |   |--- month >  11.50
|   |   |   |   |   |   |   |   |   |   |   |   |   |   |   |   |   |   |--- weights: [0.00, 36.00, 0.00] class: citation
|   |   |   |   |   |   |   |   |   |   |   |   |   |   |--- subject_age >  32.50
|   |   |   |   |   |   |   |   |   |   |   |   |   |   |   |--- month <= 1.50
|   |   |   |   |   |   |   |   |   |   |   |   |   |   |   |   |--- dayofmonth <= 18.00
|   |   |   |   |   |   |   |   |   |   |   |   |   |   |   |   |   |--- weights: [33.00, 0.00, 0.00] class: arrest
|   |   |   |   |   |   |   |   |   |   |   |   |   |   |   |   |--- dayofmonth >  18.00
|   |   |   |   |   |   |   |   |   |   |   |   |   |   |   |   |   |--- weights: [0.00, 17.00, 0.00] class: citation
|   |   |   |   |   |   |   |   |   |   |   |   |   |   |   |--- month >  1.50
|   |   |   |   |   |   |   |   |   |   |   |   |   |   |   |   |--- dayofmonth <= 22.50
|   |   |   |   |   |   |   |   |   |   |   |   |   |   |   |   |   |--- dayofmonth <= 19.50
|   |   |   |   |   |   |   |   |   |   |   |   |   |   |   |   |   |   |--- dayofmonth <= 7.50
|   |   |   |   |   |   |   |   |   |   |   |   |   |   |   |   |   |   |   |--- reason_for_stop_safety violation <= 0.50
|   |   |   |   |   |   |   |   |   |   |   |   |   |   |   |   |   |   |   |   |--- weights: [0.00, 94.00, 0.00] class: citation
|   |   |   |   |   |   |   |   |   |   |   |   |   |   |   |   |   |   |   |--- reason_for_stop_safety violation >  0.50
|   |   |   |   |   |   |   |   |   |   |   |   |   |   |   |   |   |   |   |   |--- month <= 5.50
|   |   |   |   |   |   |   |   |   |   |   |   |   |   |   |   |   |   |   |   |   |--- weights: [0.00, 0.00, 18.00] class: warning
|   |   |   |   |   |   |   |   |   |   |   |   |   |   |   |   |   |   |   |   |--- month >  5.50
|   |   |   |   |   |   |   |   |   |   |   |   |   |   |   |   |   |   |   |   |   |--- weights: [0.00, 21.00, 0.00] class: citation
|   |   |   |   |   |   |   |   |   |   |   |   |   |   |   |   |   |   |--- dayofmonth >  7.50
|   |   |   |   |   |   |   |   |   |   |   |   |   |   |   |   |   |   |   |--- dayofmonth <= 14.00
|   |   |   |   |   |   |   |   |   |   |   |   |   |   |   |   |   |   |   |   |--- weights: [0.00, 0.00, 34.00] class: warning
|   |   |   |   |   |   |   |   |   |   |   |   |   |   |   |   |   |   |   |--- dayofmonth >  14.00
|   |   |   |   |   |   |   |   |   |   |   |   |   |   |   |   |   |   |   |   |--- month <= 9.00
|   |   |   |   |   |   |   |   |   |   |   |   |   |   |   |   |   |   |   |   |   |--- month <= 4.00
|   |   |   |   |   |   |   |   |   |   |   |   |   |   |   |   |   |   |   |   |   |   |--- weights: [0.00, 14.00, 0.00] class: citation
|   |   |   |   |   |   |   |   |   |   |   |   |   |   |   |   |   |   |   |   |   |--- month >  4.00
|   |   |   |   |   |   |   |   |   |   |   |   |   |   |   |   |   |   |   |   |   |   |--- subject_age <= 38.00
|   |   |   |   |   |   |   |   |   |   |   |   |   |   |   |   |   |   |   |   |   |   |   |--- subject_age <= 35.50
|   |   |   |   |   |   |   |   |   |   |   |   |   |   |   |   |   |   |   |   |   |   |   |   |--- weights: [0.00, 0.00, 16.00] class: warning
|   |   |   |   |   |   |   |   |   |   |   |   |   |   |   |   |   |   |   |   |   |   |   |--- subject_age >  35.50
|   |   |   |   |   |   |   |   |   |   |   |   |   |   |   |   |   |   |   |   |   |   |   |   |--- weights: [14.00, 0.00, 0.00] class: arrest
|   |   |   |   |   |   |   |   |   |   |   |   |   |   |   |   |   |   |   |   |   |   |--- subject_age >  38.00
|   |   |   |   |   |   |   |   |   |   |   |   |   |   |   |   |   |   |   |   |   |   |   |--- weights: [0.00, 0.00, 22.00] class: warning
|   |   |   |   |   |   |   |   |   |   |   |   |   |   |   |   |   |   |   |   |--- month >  9.00
|   |   |   |   |   |   |   |   |   |   |   |   |   |   |   |   |   |   |   |   |   |--- weights: [0.00, 39.00, 0.00] class: citation
|   |   |   |   |   |   |   |   |   |   |   |   |   |   |   |   |   |--- dayofmonth >  19.50
|   |   |   |   |   |   |   |   |   |   |   |   |   |   |   |   |   |   |--- weights: [0.00, 70.00, 0.00] class: citation
|   |   |   |   |   |   |   |   |   |   |   |   |   |   |   |   |--- dayofmonth >  22.50
|   |   |   |   |   |   |   |   |   |   |   |   |   |   |   |   |   |--- month <= 4.50
|   |   |   |   |   |   |   |   |   |   |   |   |   |   |   |   |   |   |--- weights: [0.00, 0.00, 40.00] class: warning
|   |   |   |   |   |   |   |   |   |   |   |   |   |   |   |   |   |--- month >  4.50
|   |   |   |   |   |   |   |   |   |   |   |   |   |   |   |   |   |   |--- subject_race_white <= 0.50
|   |   |   |   |   |   |   |   |   |   |   |   |   |   |   |   |   |   |   |--- weights: [0.00, 27.00, 0.00] class: citation
|   |   |   |   |   |   |   |   |   |   |   |   |   |   |   |   |   |   |--- subject_race_white >  0.50
|   |   |   |   |   |   |   |   |   |   |   |   |   |   |   |   |   |   |   |--- weights: [0.00, 0.00, 20.00] class: warning
|   |   |   |   |   |   |   |   |   |   |   |   |   |--- reason_for_stop_investigative stop >  0.50
|   |   |   |   |   |   |   |   |   |   |   |   |   |   |--- month <= 3.00
|   |   |   |   |   |   |   |   |   |   |   |   |   |   |   |--- weights: [36.00, 0.00, 0.00] class: arrest
|   |   |   |   |   |   |   |   |   |   |   |   |   |   |--- month >  3.00
|   |   |   |   |   |   |   |   |   |   |   |   |   |   |   |--- month <= 9.00
|   |   |   |   |   |   |   |   |   |   |   |   |   |   |   |   |--- weights: [0.00, 59.00, 0.00] class: citation
|   |   |   |   |   |   |   |   |   |   |   |   |   |   |   |--- month >  9.00
|   |   |   |   |   |   |   |   |   |   |   |   |   |   |   |   |--- month <= 10.50
|   |   |   |   |   |   |   |   |   |   |   |   |   |   |   |   |   |--- weights: [0.00, 0.00, 19.00] class: warning
|   |   |   |   |   |   |   |   |   |   |   |   |   |   |   |   |--- month >  10.50
|   |   |   |   |   |   |   |   |   |   |   |   |   |   |   |   |   |--- weights: [22.00, 0.00, 0.00] class: arrest
|   |   |   |   |   |   |   |   |   |   |   |   |--- reason_for_stop_seatbelt violation >  0.50
|   |   |   |   |   |   |   |   |   |   |   |   |   |--- weights: [0.00, 0.00, 26.00] class: warning
|   |   |   |   |   |   |   |   |   |   |   |--- weekend >  0.50
|   |   |   |   |   |   |   |   |   |   |   |   |--- dayofmonth <= 30.50
|   |   |   |   |   |   |   |   |   |   |   |   |   |--- subject_race_white <= 0.50
|   |   |   |   |   |   |   |   |   |   |   |   |   |   |--- weights: [0.00, 203.00, 0.00] class: citation
|   |   |   |   |   |   |   |   |   |   |   |   |   |--- subject_race_white >  0.50
|   |   |   |   |   |   |   |   |   |   |   |   |   |   |--- dayofmonth <= 9.50
|   |   |   |   |   |   |   |   |   |   |   |   |   |   |   |--- weights: [0.00, 50.00, 0.00] class: citation
|   |   |   |   |   |   |   |   |   |   |   |   |   |   |--- dayofmonth >  9.50
|   |   |   |   |   |   |   |   |   |   |   |   |   |   |   |--- month <= 4.00
|   |   |   |   |   |   |   |   |   |   |   |   |   |   |   |   |--- weights: [0.00, 32.00, 0.00] class: citation
|   |   |   |   |   |   |   |   |   |   |   |   |   |   |   |--- month >  4.00
|   |   |   |   |   |   |   |   |   |   |   |   |   |   |   |   |--- weights: [0.00, 0.00, 19.00] class: warning
|   |   |   |   |   |   |   |   |   |   |   |   |--- dayofmonth >  30.50
|   |   |   |   |   |   |   |   |   |   |   |   |   |--- weights: [0.00, 0.00, 18.00] class: warning
|   |   |   |   |   |   |   |   |   |   |--- search_basis_probable cause >  0.50
|   |   |   |   |   |   |   |   |   |   |   |--- dayofmonth <= 23.00
|   |   |   |   |   |   |   |   |   |   |   |   |--- subject_age <= 26.50
|   |   |   |   |   |   |   |   |   |   |   |   |   |--- weights: [0.00, 0.00, 11.00] class: warning
|   |   |   |   |   |   |   |   |   |   |   |   |--- subject_age >  26.50
|   |   |   |   |   |   |   |   |   |   |   |   |   |--- weights: [0.00, 17.00, 0.00] class: citation
|   |   |   |   |   |   |   |   |   |   |   |--- dayofmonth >  23.00
|   |   |   |   |   |   |   |   |   |   |   |   |--- dayofmonth <= 27.50
|   |   |   |   |   |   |   |   |   |   |   |   |   |--- dayofmonth <= 26.50
|   |   |   |   |   |   |   |   |   |   |   |   |   |   |--- weights: [13.00, 0.00, 0.00] class: arrest
|   |   |   |   |   |   |   |   |   |   |   |   |   |--- dayofmonth >  26.50
|   |   |   |   |   |   |   |   |   |   |   |   |   |   |--- weights: [0.00, 10.00, 0.00] class: citation
|   |   |   |   |   |   |   |   |   |   |   |   |--- dayofmonth >  27.50
|   |   |   |   |   |   |   |   |   |   |   |   |   |--- weights: [41.00, 0.00, 0.00] class: arrest
|   |   |   |   |   |   |   |   |   |--- subject_age >  41.50
|   |   |   |   |   |   |   |   |   |   |--- reason_for_stop_safety violation <= 0.50
|   |   |   |   |   |   |   |   |   |   |   |--- reason_for_stop_investigative stop <= 0.50
|   |   |   |   |   |   |   |   |   |   |   |   |--- month <= 11.50
|   |   |   |   |   |   |   |   |   |   |   |   |   |--- month <= 4.50
|   |   |   |   |   |   |   |   |   |   |   |   |   |   |--- month <= 3.50
|   |   |   |   |   |   |   |   |   |   |   |   |   |   |   |--- subject_race_black <= 0.50
|   |   |   |   |   |   |   |   |   |   |   |   |   |   |   |   |--- weights: [0.00, 0.00, 72.00] class: warning
|   |   |   |   |   |   |   |   |   |   |   |   |   |   |   |--- subject_race_black >  0.50
|   |   |   |   |   |   |   |   |   |   |   |   |   |   |   |   |--- month <= 2.00
|   |   |   |   |   |   |   |   |   |   |   |   |   |   |   |   |   |--- weights: [0.00, 47.00, 0.00] class: citation
|   |   |   |   |   |   |   |   |   |   |   |   |   |   |   |   |--- month >  2.00
|   |   |   |   |   |   |   |   |   |   |   |   |   |   |   |   |   |--- reason_for_stop_registration <= 0.50
|   |   |   |   |   |   |   |   |   |   |   |   |   |   |   |   |   |   |--- weights: [17.00, 0.00, 0.00] class: arrest
|   |   |   |   |   |   |   |   |   |   |   |   |   |   |   |   |   |--- reason_for_stop_registration >  0.50
|   |   |   |   |   |   |   |   |   |   |   |   |   |   |   |   |   |   |--- weights: [0.00, 0.00, 13.00] class: warning
|   |   |   |   |   |   |   |   |   |   |   |   |   |   |--- month >  3.50
|   |   |   |   |   |   |   |   |   |   |   |   |   |   |   |--- weights: [0.00, 51.00, 0.00] class: citation
|   |   |   |   |   |   |   |   |   |   |   |   |   |--- month >  4.50
|   |   |   |   |   |   |   |   |   |   |   |   |   |   |--- month <= 6.50
|   |   |   |   |   |   |   |   |   |   |   |   |   |   |   |--- dayofmonth <= 16.00
|   |   |   |   |   |   |   |   |   |   |   |   |   |   |   |   |--- weights: [0.00, 0.00, 86.00] class: warning
|   |   |   |   |   |   |   |   |   |   |   |   |   |   |   |--- dayofmonth >  16.00
|   |   |   |   |   |   |   |   |   |   |   |   |   |   |   |   |--- reason_for_stop_registration <= 0.50
|   |   |   |   |   |   |   |   |   |   |   |   |   |   |   |   |   |--- weights: [0.00, 16.00, 0.00] class: citation
|   |   |   |   |   |   |   |   |   |   |   |   |   |   |   |   |--- reason_for_stop_registration >  0.50
|   |   |   |   |   |   |   |   |   |   |   |   |   |   |   |   |   |--- weights: [0.00, 0.00, 15.00] class: warning
|   |   |   |   |   |   |   |   |   |   |   |   |   |   |--- month >  6.50
|   |   |   |   |   |   |   |   |   |   |   |   |   |   |   |--- dayofmonth <= 10.50
|   |   |   |   |   |   |   |   |   |   |   |   |   |   |   |   |--- month <= 7.50
|   |   |   |   |   |   |   |   |   |   |   |   |   |   |   |   |   |--- weights: [18.00, 0.00, 0.00] class: arrest
|   |   |   |   |   |   |   |   |   |   |   |   |   |   |   |   |--- month >  7.50
|   |   |   |   |   |   |   |   |   |   |   |   |   |   |   |   |   |--- dayofmonth <= 6.00
|   |   |   |   |   |   |   |   |   |   |   |   |   |   |   |   |   |   |--- weights: [0.00, 12.00, 0.00] class: citation
|   |   |   |   |   |   |   |   |   |   |   |   |   |   |   |   |   |--- dayofmonth >  6.00
|   |   |   |   |   |   |   |   |   |   |   |   |   |   |   |   |   |   |--- weights: [14.00, 0.00, 0.00] class: arrest
|   |   |   |   |   |   |   |   |   |   |   |   |   |   |   |--- dayofmonth >  10.50
|   |   |   |   |   |   |   |   |   |   |   |   |   |   |   |   |--- subject_age <= 49.50
|   |   |   |   |   |   |   |   |   |   |   |   |   |   |   |   |   |--- subject_age <= 45.00
|   |   |   |   |   |   |   |   |   |   |   |   |   |   |   |   |   |   |--- weights: [0.00, 0.00, 34.00] class: warning
|   |   |   |   |   |   |   |   |   |   |   |   |   |   |   |   |   |--- subject_age >  45.00
|   |   |   |   |   |   |   |   |   |   |   |   |   |   |   |   |   |   |--- reason_for_stop_moving traffic violation <= 0.50
|   |   |   |   |   |   |   |   |   |   |   |   |   |   |   |   |   |   |   |--- weights: [0.00, 11.00, 0.00] class: citation
|   |   |   |   |   |   |   |   |   |   |   |   |   |   |   |   |   |   |--- reason_for_stop_moving traffic violation >  0.50
|   |   |   |   |   |   |   |   |   |   |   |   |   |   |   |   |   |   |   |--- weights: [24.00, 0.00, 0.00] class: arrest
|   |   |   |   |   |   |   |   |   |   |   |   |   |   |   |   |--- subject_age >  49.50
|   |   |   |   |   |   |   |   |   |   |   |   |   |   |   |   |   |--- weights: [0.00, 0.00, 57.00] class: warning
|   |   |   |   |   |   |   |   |   |   |   |   |--- month >  11.50
|   |   |   |   |   |   |   |   |   |   |   |   |   |--- subject_age <= 51.50
|   |   |   |   |   |   |   |   |   |   |   |   |   |   |--- subject_age <= 47.00
|   |   |   |   |   |   |   |   |   |   |   |   |   |   |   |--- subject_age <= 45.00
|   |   |   |   |   |   |   |   |   |   |   |   |   |   |   |   |--- weights: [10.00, 0.00, 0.00] class: arrest
|   |   |   |   |   |   |   |   |   |   |   |   |   |   |   |--- subject_age >  45.00
|   |   |   |   |   |   |   |   |   |   |   |   |   |   |   |   |--- weights: [0.00, 17.00, 0.00] class: citation
|   |   |   |   |   |   |   |   |   |   |   |   |   |   |--- subject_age >  47.00
|   |   |   |   |   |   |   |   |   |   |   |   |   |   |   |--- weights: [20.00, 0.00, 0.00] class: arrest
|   |   |   |   |   |   |   |   |   |   |   |   |   |--- subject_age >  51.50
|   |   |   |   |   |   |   |   |   |   |   |   |   |   |--- weights: [0.00, 45.00, 0.00] class: citation
|   |   |   |   |   |   |   |   |   |   |   |--- reason_for_stop_investigative stop >  0.50
|   |   |   |   |   |   |   |   |   |   |   |   |--- subject_age <= 47.00
|   |   |   |   |   |   |   |   |   |   |   |   |   |--- weights: [0.00, 0.00, 22.00] class: warning
|   |   |   |   |   |   |   |   |   |   |   |   |--- subject_age >  47.00
|   |   |   |   |   |   |   |   |   |   |   |   |   |--- month <= 7.50
|   |   |   |   |   |   |   |   |   |   |   |   |   |   |--- subject_age <= 49.50
|   |   |   |   |   |   |   |   |   |   |   |   |   |   |   |--- weights: [20.00, 0.00, 0.00] class: arrest
|   |   |   |   |   |   |   |   |   |   |   |   |   |   |--- subject_age >  49.50
|   |   |   |   |   |   |   |   |   |   |   |   |   |   |   |--- weights: [0.00, 76.00, 0.00] class: citation
|   |   |   |   |   |   |   |   |   |   |   |   |   |--- month >  7.50
|   |   |   |   |   |   |   |   |   |   |   |   |   |   |--- subject_age <= 50.50
|   |   |   |   |   |   |   |   |   |   |   |   |   |   |   |--- weights: [0.00, 22.00, 0.00] class: citation
|   |   |   |   |   |   |   |   |   |   |   |   |   |   |--- subject_age >  50.50
|   |   |   |   |   |   |   |   |   |   |   |   |   |   |   |--- weights: [53.00, 0.00, 0.00] class: arrest
|   |   |   |   |   |   |   |   |   |   |--- reason_for_stop_safety violation >  0.50
|   |   |   |   |   |   |   |   |   |   |   |--- month <= 7.50
|   |   |   |   |   |   |   |   |   |   |   |   |--- weights: [0.00, 87.00, 0.00] class: citation
|   |   |   |   |   |   |   |   |   |   |   |--- month >  7.50
|   |   |   |   |   |   |   |   |   |   |   |   |--- dayofmonth <= 18.50
|   |   |   |   |   |   |   |   |   |   |   |   |   |--- dayofmonth <= 4.50
|   |   |   |   |   |   |   |   |   |   |   |   |   |   |--- subject_age <= 52.00
|   |   |   |   |   |   |   |   |   |   |   |   |   |   |   |--- weights: [0.00, 0.00, 13.00] class: warning
|   |   |   |   |   |   |   |   |   |   |   |   |   |   |--- subject_age >  52.00
|   |   |   |   |   |   |   |   |   |   |   |   |   |   |   |--- weights: [0.00, 14.00, 0.00] class: citation
|   |   |   |   |   |   |   |   |   |   |   |   |   |--- dayofmonth >  4.50
|   |   |   |   |   |   |   |   |   |   |   |   |   |   |--- weights: [0.00, 36.00, 0.00] class: citation
|   |   |   |   |   |   |   |   |   |   |   |   |--- dayofmonth >  18.50
|   |   |   |   |   |   |   |   |   |   |   |   |   |--- weights: [0.00, 0.00, 18.00] class: warning
|   |   |   |   |   |   |--- frisk_performed >  0.50
|   |   |   |   |   |   |   |--- reason_for_stop_investigative stop <= 0.50
|   |   |   |   |   |   |   |   |--- subject_age <= 53.50
|   |   |   |   |   |   |   |   |   |--- subject_race_black <= 0.50
|   |   |   |   |   |   |   |   |   |   |--- month <= 1.50
|   |   |   |   |   |   |   |   |   |   |   |--- dayofmonth <= 4.50
|   |   |   |   |   |   |   |   |   |   |   |   |--- weights: [0.00, 57.00, 0.00] class: citation
|   |   |   |   |   |   |   |   |   |   |   |--- dayofmonth >  4.50
|   |   |   |   |   |   |   |   |   |   |   |   |--- dayofmonth <= 12.50
|   |   |   |   |   |   |   |   |   |   |   |   |   |--- weights: [59.00, 0.00, 0.00] class: arrest
|   |   |   |   |   |   |   |   |   |   |   |   |--- dayofmonth >  12.50
|   |   |   |   |   |   |   |   |   |   |   |   |   |--- dayofmonth <= 29.00
|   |   |   |   |   |   |   |   |   |   |   |   |   |   |--- weekend <= 0.50
|   |   |   |   |   |   |   |   |   |   |   |   |   |   |   |--- weights: [0.00, 86.00, 0.00] class: citation
|   |   |   |   |   |   |   |   |   |   |   |   |   |   |--- weekend >  0.50
|   |   |   |   |   |   |   |   |   |   |   |   |   |   |   |--- subject_age <= 26.50
|   |   |   |   |   |   |   |   |   |   |   |   |   |   |   |   |--- weights: [0.00, 10.00, 0.00] class: citation
|   |   |   |   |   |   |   |   |   |   |   |   |   |   |   |--- subject_age >  26.50
|   |   |   |   |   |   |   |   |   |   |   |   |   |   |   |   |--- weights: [30.00, 0.00, 0.00] class: arrest
|   |   |   |   |   |   |   |   |   |   |   |   |   |--- dayofmonth >  29.00
|   |   |   |   |   |   |   |   |   |   |   |   |   |   |--- weights: [38.00, 0.00, 0.00] class: arrest
|   |   |   |   |   |   |   |   |   |   |--- month >  1.50
|   |   |   |   |   |   |   |   |   |   |   |--- dayofmonth <= 21.50
|   |   |   |   |   |   |   |   |   |   |   |   |--- dayofmonth <= 19.50
|   |   |   |   |   |   |   |   |   |   |   |   |   |--- reason_for_stop_registration <= 0.50
|   |   |   |   |   |   |   |   |   |   |   |   |   |   |--- dayofmonth <= 10.50
|   |   |   |   |   |   |   |   |   |   |   |   |   |   |   |--- subject_race_white <= 0.50
|   |   |   |   |   |   |   |   |   |   |   |   |   |   |   |   |--- weights: [0.00, 0.00, 20.00] class: warning
|   |   |   |   |   |   |   |   |   |   |   |   |   |   |   |--- subject_race_white >  0.50
|   |   |   |   |   |   |   |   |   |   |   |   |   |   |   |   |--- dayofmonth <= 8.50
|   |   |   |   |   |   |   |   |   |   |   |   |   |   |   |   |   |--- month <= 8.50
|   |   |   |   |   |   |   |   |   |   |   |   |   |   |   |   |   |   |--- dayofmonth <= 1.50
|   |   |   |   |   |   |   |   |   |   |   |   |   |   |   |   |   |   |   |--- weights: [0.00, 0.00, 21.00] class: warning
|   |   |   |   |   |   |   |   |   |   |   |   |   |   |   |   |   |   |--- dayofmonth >  1.50
|   |   |   |   |   |   |   |   |   |   |   |   |   |   |   |   |   |   |   |--- month <= 5.50
|   |   |   |   |   |   |   |   |   |   |   |   |   |   |   |   |   |   |   |   |--- dayofmonth <= 3.50
|   |   |   |   |   |   |   |   |   |   |   |   |   |   |   |   |   |   |   |   |   |--- month <= 4.50
|   |   |   |   |   |   |   |   |   |   |   |   |   |   |   |   |   |   |   |   |   |   |--- month <= 2.50
|   |   |   |   |   |   |   |   |   |   |   |   |   |   |   |   |   |   |   |   |   |   |   |--- weights: [10.00, 0.00, 0.00] class: arrest
|   |   |   |   |   |   |   |   |   |   |   |   |   |   |   |   |   |   |   |   |   |   |--- month >  2.50
|   |   |   |   |   |   |   |   |   |   |   |   |   |   |   |   |   |   |   |   |   |   |   |--- weights: [0.00, 33.00, 0.00] class: citation
|   |   |   |   |   |   |   |   |   |   |   |   |   |   |   |   |   |   |   |   |   |--- month >  4.50
|   |   |   |   |   |   |   |   |   |   |   |   |   |   |   |   |   |   |   |   |   |   |--- weights: [32.00, 0.00, 0.00] class: arrest
|   |   |   |   |   |   |   |   |   |   |   |   |   |   |   |   |   |   |   |   |--- dayofmonth >  3.50
|   |   |   |   |   |   |   |   |   |   |   |   |   |   |   |   |   |   |   |   |   |--- month <= 2.50
|   |   |   |   |   |   |   |   |   |   |   |   |   |   |   |   |   |   |   |   |   |   |--- subject_age <= 23.50
|   |   |   |   |   |   |   |   |   |   |   |   |   |   |   |   |   |   |   |   |   |   |   |--- weights: [18.00, 0.00, 0.00] class: arrest
|   |   |   |   |   |   |   |   |   |   |   |   |   |   |   |   |   |   |   |   |   |   |--- subject_age >  23.50
|   |   |   |   |   |   |   |   |   |   |   |   |   |   |   |   |   |   |   |   |   |   |   |--- subject_age <= 34.00
|   |   |   |   |   |   |   |   |   |   |   |   |   |   |   |   |   |   |   |   |   |   |   |   |--- weights: [0.00, 35.00, 0.00] class: citation
|   |   |   |   |   |   |   |   |   |   |   |   |   |   |   |   |   |   |   |   |   |   |   |--- subject_age >  34.00
|   |   |   |   |   |   |   |   |   |   |   |   |   |   |   |   |   |   |   |   |   |   |   |   |--- weights: [0.00, 0.00, 18.00] class: warning
|   |   |   |   |   |   |   |   |   |   |   |   |   |   |   |   |   |   |   |   |   |--- month >  2.50
|   |   |   |   |   |   |   |   |   |   |   |   |   |   |   |   |   |   |   |   |   |   |--- weights: [0.00, 109.00, 0.00] class: citation
|   |   |   |   |   |   |   |   |   |   |   |   |   |   |   |   |   |   |   |--- month >  5.50
|   |   |   |   |   |   |   |   |   |   |   |   |   |   |   |   |   |   |   |   |--- subject_sex <= 0.50
|   |   |   |   |   |   |   |   |   |   |   |   |   |   |   |   |   |   |   |   |   |--- weights: [0.00, 0.00, 21.00] class: warning
|   |   |   |   |   |   |   |   |   |   |   |   |   |   |   |   |   |   |   |   |--- subject_sex >  0.50
|   |   |   |   |   |   |   |   |   |   |   |   |   |   |   |   |   |   |   |   |   |--- subject_age <= 46.50
|   |   |   |   |   |   |   |   |   |   |   |   |   |   |   |   |   |   |   |   |   |   |--- subject_age <= 35.50
|   |   |   |   |   |   |   |   |   |   |   |   |   |   |   |   |   |   |   |   |   |   |   |--- subject_age <= 24.50
|   |   |   |   |   |   |   |   |   |   |   |   |   |   |   |   |   |   |   |   |   |   |   |   |--- weights: [21.00, 0.00, 0.00] class: arrest
|   |   |   |   |   |   |   |   |   |   |   |   |   |   |   |   |   |   |   |   |   |   |   |--- subject_age >  24.50
|   |   |   |   |   |   |   |   |   |   |   |   |   |   |   |   |   |   |   |   |   |   |   |   |--- month <= 6.50
|   |   |   |   |   |   |   |   |   |   |   |   |   |   |   |   |   |   |   |   |   |   |   |   |   |--- weights: [10.00, 0.00, 0.00] class: arrest
|   |   |   |   |   |   |   |   |   |   |   |   |   |   |   |   |   |   |   |   |   |   |   |   |--- month >  6.50
|   |   |   |   |   |   |   |   |   |   |   |   |   |   |   |   |   |   |   |   |   |   |   |   |   |--- weights: [0.00, 33.00, 0.00] class: citation
|   |   |   |   |   |   |   |   |   |   |   |   |   |   |   |   |   |   |   |   |   |   |--- subject_age >  35.50
|   |   |   |   |   |   |   |   |   |   |   |   |   |   |   |   |   |   |   |   |   |   |   |--- weights: [33.00, 0.00, 0.00] class: arrest
|   |   |   |   |   |   |   |   |   |   |   |   |   |   |   |   |   |   |   |   |   |--- subject_age >  46.50
|   |   |   |   |   |   |   |   |   |   |   |   |   |   |   |   |   |   |   |   |   |   |--- weights: [0.00, 17.00, 0.00] class: citation
|   |   |   |   |   |   |   |   |   |   |   |   |   |   |   |   |   |--- month >  8.50
|   |   |   |   |   |   |   |   |   |   |   |   |   |   |   |   |   |   |--- dayofmonth <= 3.50
|   |   |   |   |   |   |   |   |   |   |   |   |   |   |   |   |   |   |   |--- dayofmonth <= 2.50
|   |   |   |   |   |   |   |   |   |   |   |   |   |   |   |   |   |   |   |   |--- weights: [0.00, 56.00, 0.00] class: citation
|   |   |   |   |   |   |   |   |   |   |   |   |   |   |   |   |   |   |   |--- dayofmonth >  2.50
|   |   |   |   |   |   |   |   |   |   |   |   |   |   |   |   |   |   |   |   |--- weights: [0.00, 0.00, 33.00] class: warning
|   |   |   |   |   |   |   |   |   |   |   |   |   |   |   |   |   |   |--- dayofmonth >  3.50
|   |   |   |   |   |   |   |   |   |   |   |   |   |   |   |   |   |   |   |--- weights: [0.00, 115.00, 0.00] class: citation
|   |   |   |   |   |   |   |   |   |   |   |   |   |   |   |   |--- dayofmonth >  8.50
|   |   |   |   |   |   |   |   |   |   |   |   |   |   |   |   |   |--- month <= 8.50
|   |   |   |   |   |   |   |   |   |   |   |   |   |   |   |   |   |   |--- month <= 4.00
|   |   |   |   |   |   |   |   |   |   |   |   |   |   |   |   |   |   |   |--- subject_age <= 32.50
|   |   |   |   |   |   |   |   |   |   |   |   |   |   |   |   |   |   |   |   |--- reason_for_stop_safety violation <= 0.50
|   |   |   |   |   |   |   |   |   |   |   |   |   |   |   |   |   |   |   |   |   |--- weights: [0.00, 19.00, 0.00] class: citation
|   |   |   |   |   |   |   |   |   |   |   |   |   |   |   |   |   |   |   |   |--- reason_for_stop_safety violation >  0.50
|   |   |   |   |   |   |   |   |   |   |   |   |   |   |   |   |   |   |   |   |   |--- weights: [0.00, 0.00, 15.00] class: warning
|   |   |   |   |   |   |   |   |   |   |   |   |   |   |   |   |   |   |   |--- subject_age >  32.50
|   |   |   |   |   |   |   |   |   |   |   |   |   |   |   |   |   |   |   |   |--- weights: [33.00, 0.00, 0.00] class: arrest
|   |   |   |   |   |   |   |   |   |   |   |   |   |   |   |   |   |   |--- month >  4.00
|   |   |   |   |   |   |   |   |   |   |   |   |   |   |   |   |   |   |   |--- weights: [0.00, 72.00, 0.00] class: citation
|   |   |   |   |   |   |   |   |   |   |   |   |   |   |   |   |   |--- month >  8.50
|   |   |   |   |   |   |   |   |   |   |   |   |   |   |   |   |   |   |--- subject_age <= 30.50
|   |   |   |   |   |   |   |   |   |   |   |   |   |   |   |   |   |   |   |--- weights: [54.00, 0.00, 0.00] class: arrest
|   |   |   |   |   |   |   |   |   |   |   |   |   |   |   |   |   |   |--- subject_age >  30.50
|   |   |   |   |   |   |   |   |   |   |   |   |   |   |   |   |   |   |   |--- subject_age <= 36.00
|   |   |   |   |   |   |   |   |   |   |   |   |   |   |   |   |   |   |   |   |--- subject_age <= 32.50
|   |   |   |   |   |   |   |   |   |   |   |   |   |   |   |   |   |   |   |   |   |--- weights: [0.00, 0.00, 12.00] class: warning
|   |   |   |   |   |   |   |   |   |   |   |   |   |   |   |   |   |   |   |   |--- subject_age >  32.50
|   |   |   |   |   |   |   |   |   |   |   |   |   |   |   |   |   |   |   |   |   |--- weights: [0.00, 19.00, 0.00] class: citation
|   |   |   |   |   |   |   |   |   |   |   |   |   |   |   |   |   |   |   |--- subject_age >  36.00
|   |   |   |   |   |   |   |   |   |   |   |   |   |   |   |   |   |   |   |   |--- weights: [13.00, 0.00, 0.00] class: arrest
|   |   |   |   |   |   |   |   |   |   |   |   |   |   |--- dayofmonth >  10.50
|   |   |   |   |   |   |   |   |   |   |   |   |   |   |   |--- month <= 9.50
|   |   |   |   |   |   |   |   |   |   |   |   |   |   |   |   |--- weekend <= 0.50
|   |   |   |   |   |   |   |   |   |   |   |   |   |   |   |   |   |--- dayofmonth <= 17.50
|   |   |   |   |   |   |   |   |   |   |   |   |   |   |   |   |   |   |--- subject_age <= 34.50
|   |   |   |   |   |   |   |   |   |   |   |   |   |   |   |   |   |   |   |--- weights: [0.00, 238.00, 0.00] class: citation
|   |   |   |   |   |   |   |   |   |   |   |   |   |   |   |   |   |   |--- subject_age >  34.50
|   |   |   |   |   |   |   |   |   |   |   |   |   |   |   |   |   |   |   |--- subject_age <= 36.50
|   |   |   |   |   |   |   |   |   |   |   |   |   |   |   |   |   |   |   |   |--- weights: [16.00, 0.00, 0.00] class: arrest
|   |   |   |   |   |   |   |   |   |   |   |   |   |   |   |   |   |   |   |--- subject_age >  36.50
|   |   |   |   |   |   |   |   |   |   |   |   |   |   |   |   |   |   |   |   |--- weights: [0.00, 109.00, 0.00] class: citation
|   |   |   |   |   |   |   |   |   |   |   |   |   |   |   |   |   |--- dayofmonth >  17.50
|   |   |   |   |   |   |   |   |   |   |   |   |   |   |   |   |   |   |--- month <= 8.00
|   |   |   |   |   |   |   |   |   |   |   |   |   |   |   |   |   |   |   |--- subject_age <= 38.50
|   |   |   |   |   |   |   |   |   |   |   |   |   |   |   |   |   |   |   |   |--- weights: [27.00, 0.00, 0.00] class: arrest
|   |   |   |   |   |   |   |   |   |   |   |   |   |   |   |   |   |   |   |--- subject_age >  38.50
|   |   |   |   |   |   |   |   |   |   |   |   |   |   |   |   |   |   |   |   |--- weights: [0.00, 14.00, 0.00] class: citation
|   |   |   |   |   |   |   |   |   |   |   |   |   |   |   |   |   |   |--- month >  8.00
|   |   |   |   |   |   |   |   |   |   |   |   |   |   |   |   |   |   |   |--- weights: [0.00, 20.00, 0.00] class: citation
|   |   |   |   |   |   |   |   |   |   |   |   |   |   |   |   |--- weekend >  0.50
|   |   |   |   |   |   |   |   |   |   |   |   |   |   |   |   |   |--- dayofmonth <= 14.00
|   |   |   |   |   |   |   |   |   |   |   |   |   |   |   |   |   |   |--- weights: [20.00, 0.00, 0.00] class: arrest
|   |   |   |   |   |   |   |   |   |   |   |   |   |   |   |   |   |--- dayofmonth >  14.00
|   |   |   |   |   |   |   |   |   |   |   |   |   |   |   |   |   |   |--- month <= 4.50
|   |   |   |   |   |   |   |   |   |   |   |   |   |   |   |   |   |   |   |--- weights: [0.00, 30.00, 0.00] class: citation
|   |   |   |   |   |   |   |   |   |   |   |   |   |   |   |   |   |   |--- month >  4.50
|   |   |   |   |   |   |   |   |   |   |   |   |   |   |   |   |   |   |   |--- month <= 6.50
|   |   |   |   |   |   |   |   |   |   |   |   |   |   |   |   |   |   |   |   |--- weights: [0.00, 0.00, 15.00] class: warning
|   |   |   |   |   |   |   |   |   |   |   |   |   |   |   |   |   |   |   |--- month >  6.50
|   |   |   |   |   |   |   |   |   |   |   |   |   |   |   |   |   |   |   |   |--- weights: [0.00, 14.00, 0.00] class: citation
|   |   |   |   |   |   |   |   |   |   |   |   |   |   |   |--- month >  9.50
|   |   |   |   |   |   |   |   |   |   |   |   |   |   |   |   |--- month <= 10.50
|   |   |   |   |   |   |   |   |   |   |   |   |   |   |   |   |   |--- weights: [0.00, 0.00, 58.00] class: warning
|   |   |   |   |   |   |   |   |   |   |   |   |   |   |   |   |--- month >  10.50
|   |   |   |   |   |   |   |   |   |   |   |   |   |   |   |   |   |--- subject_age <= 28.00
|   |   |   |   |   |   |   |   |   |   |   |   |   |   |   |   |   |   |--- dayofmonth <= 12.50
|   |   |   |   |   |   |   |   |   |   |   |   |   |   |   |   |   |   |   |--- weights: [0.00, 22.00, 0.00] class: citation
|   |   |   |   |   |   |   |   |   |   |   |   |   |   |   |   |   |   |--- dayofmonth >  12.50
|   |   |   |   |   |   |   |   |   |   |   |   |   |   |   |   |   |   |   |--- weights: [0.00, 0.00, 25.00] class: warning
|   |   |   |   |   |   |   |   |   |   |   |   |   |   |   |   |   |--- subject_age >  28.00
|   |   |   |   |   |   |   |   |   |   |   |   |   |   |   |   |   |   |--- weights: [0.00, 69.00, 0.00] class: citation
|   |   |   |   |   |   |   |   |   |   |   |   |   |--- reason_for_stop_registration >  0.50
|   |   |   |   |   |   |   |   |   |   |   |   |   |   |--- dayofmonth <= 6.00
|   |   |   |   |   |   |   |   |   |   |   |   |   |   |   |--- weights: [0.00, 40.00, 0.00] class: citation
|   |   |   |   |   |   |   |   |   |   |   |   |   |   |--- dayofmonth >  6.00
|   |   |   |   |   |   |   |   |   |   |   |   |   |   |   |--- weights: [0.00, 0.00, 49.00] class: warning
|   |   |   |   |   |   |   |   |   |   |   |   |--- dayofmonth >  19.50
|   |   |   |   |   |   |   |   |   |   |   |   |   |--- subject_age <= 21.50
|   |   |   |   |   |   |   |   |   |   |   |   |   |   |--- weights: [0.00, 21.00, 0.00] class: citation
|   |   |   |   |   |   |   |   |   |   |   |   |   |--- subject_age >  21.50
|   |   |   |   |   |   |   |   |   |   |   |   |   |   |--- weights: [136.00, 0.00, 0.00] class: arrest
|   |   |   |   |   |   |   |   |   |   |   |--- dayofmonth >  21.50
|   |   |   |   |   |   |   |   |   |   |   |   |--- subject_race_asian/pacific islander <= 0.50
|   |   |   |   |   |   |   |   |   |   |   |   |   |--- subject_age <= 39.50
|   |   |   |   |   |   |   |   |   |   |   |   |   |   |--- subject_age <= 24.50
|   |   |   |   |   |   |   |   |   |   |   |   |   |   |   |--- reason_for_stop_moving traffic violation <= 0.50
|   |   |   |   |   |   |   |   |   |   |   |   |   |   |   |   |--- weights: [0.00, 0.00, 39.00] class: warning
|   |   |   |   |   |   |   |   |   |   |   |   |   |   |   |--- reason_for_stop_moving traffic violation >  0.50
|   |   |   |   |   |   |   |   |   |   |   |   |   |   |   |   |--- month <= 11.50
|   |   |   |   |   |   |   |   |   |   |   |   |   |   |   |   |   |--- dayofmonth <= 27.00
|   |   |   |   |   |   |   |   |   |   |   |   |   |   |   |   |   |   |--- weights: [0.00, 87.00, 0.00] class: citation
|   |   |   |   |   |   |   |   |   |   |   |   |   |   |   |   |   |--- dayofmonth >  27.00
|   |   |   |   |   |   |   |   |   |   |   |   |   |   |   |   |   |   |--- dayofmonth <= 28.50
|   |   |   |   |   |   |   |   |   |   |   |   |   |   |   |   |   |   |   |--- weights: [0.00, 0.00, 23.00] class: warning
|   |   |   |   |   |   |   |   |   |   |   |   |   |   |   |   |   |   |--- dayofmonth >  28.50
|   |   |   |   |   |   |   |   |   |   |   |   |   |   |   |   |   |   |   |--- weights: [0.00, 48.00, 0.00] class: citation
|   |   |   |   |   |   |   |   |   |   |   |   |   |   |   |   |--- month >  11.50
|   |   |   |   |   |   |   |   |   |   |   |   |   |   |   |   |   |--- weights: [0.00, 0.00, 19.00] class: warning
|   |   |   |   |   |   |   |   |   |   |   |   |   |   |--- subject_age >  24.50
|   |   |   |   |   |   |   |   |   |   |   |   |   |   |   |--- search_person <= 0.50
|   |   |   |   |   |   |   |   |   |   |   |   |   |   |   |   |--- weights: [0.00, 0.00, 12.00] class: warning
|   |   |   |   |   |   |   |   |   |   |   |   |   |   |   |--- search_person >  0.50
|   |   |   |   |   |   |   |   |   |   |   |   |   |   |   |   |--- dayofmonth <= 24.50
|   |   |   |   |   |   |   |   |   |   |   |   |   |   |   |   |   |--- subject_age <= 33.50
|   |   |   |   |   |   |   |   |   |   |   |   |   |   |   |   |   |   |--- search_basis_consent <= 0.50
|   |   |   |   |   |   |   |   |   |   |   |   |   |   |   |   |   |   |   |--- weights: [9.00, 0.00, 0.00] class: arrest
|   |   |   |   |   |   |   |   |   |   |   |   |   |   |   |   |   |   |--- search_basis_consent >  0.50
|   |   |   |   |   |   |   |   |   |   |   |   |   |   |   |   |   |   |   |--- weights: [0.00, 134.00, 0.00] class: citation
|   |   |   |   |   |   |   |   |   |   |   |   |   |   |   |   |   |--- subject_age >  33.50
|   |   |   |   |   |   |   |   |   |   |   |   |   |   |   |   |   |   |--- subject_age <= 35.00
|   |   |   |   |   |   |   |   |   |   |   |   |   |   |   |   |   |   |   |--- weights: [0.00, 0.00, 16.00] class: warning
|   |   |   |   |   |   |   |   |   |   |   |   |   |   |   |   |   |   |--- subject_age >  35.00
|   |   |   |   |   |   |   |   |   |   |   |   |   |   |   |   |   |   |   |--- month <= 6.50
|   |   |   |   |   |   |   |   |   |   |   |   |   |   |   |   |   |   |   |   |--- reason_for_stop_registration <= 0.50
|   |   |   |   |   |   |   |   |   |   |   |   |   |   |   |   |   |   |   |   |   |--- weights: [0.00, 35.00, 0.00] class: citation
|   |   |   |   |   |   |   |   |   |   |   |   |   |   |   |   |   |   |   |   |--- reason_for_stop_registration >  0.50
|   |   |   |   |   |   |   |   |   |   |   |   |   |   |   |   |   |   |   |   |   |--- weights: [16.00, 0.00, 0.00] class: arrest
|   |   |   |   |   |   |   |   |   |   |   |   |   |   |   |   |   |   |   |--- month >  6.50
|   |   |   |   |   |   |   |   |   |   |   |   |   |   |   |   |   |   |   |   |--- weights: [26.00, 0.00, 0.00] class: arrest
|   |   |   |   |   |   |   |   |   |   |   |   |   |   |   |   |--- dayofmonth >  24.50
|   |   |   |   |   |   |   |   |   |   |   |   |   |   |   |   |   |--- reason_for_stop_safety violation <= 0.50
|   |   |   |   |   |   |   |   |   |   |   |   |   |   |   |   |   |   |--- weights: [0.00, 210.00, 0.00] class: citation
|   |   |   |   |   |   |   |   |   |   |   |   |   |   |   |   |   |--- reason_for_stop_safety violation >  0.50
|   |   |   |   |   |   |   |   |   |   |   |   |   |   |   |   |   |   |--- weekend <= 0.50
|   |   |   |   |   |   |   |   |   |   |   |   |   |   |   |   |   |   |   |--- weights: [17.00, 0.00, 0.00] class: arrest
|   |   |   |   |   |   |   |   |   |   |   |   |   |   |   |   |   |   |--- weekend >  0.50
|   |   |   |   |   |   |   |   |   |   |   |   |   |   |   |   |   |   |   |--- weights: [0.00, 41.00, 0.00] class: citation
|   |   |   |   |   |   |   |   |   |   |   |   |   |--- subject_age >  39.50
|   |   |   |   |   |   |   |   |   |   |   |   |   |   |--- month <= 10.50
|   |   |   |   |   |   |   |   |   |   |   |   |   |   |   |--- dayofmonth <= 24.50
|   |   |   |   |   |   |   |   |   |   |   |   |   |   |   |   |--- weights: [0.00, 14.00, 0.00] class: citation
|   |   |   |   |   |   |   |   |   |   |   |   |   |   |   |--- dayofmonth >  24.50
|   |   |   |   |   |   |   |   |   |   |   |   |   |   |   |   |--- search_person <= 0.50
|   |   |   |   |   |   |   |   |   |   |   |   |   |   |   |   |   |--- weights: [0.00, 10.00, 0.00] class: citation
|   |   |   |   |   |   |   |   |   |   |   |   |   |   |   |   |--- search_person >  0.50
|   |   |   |   |   |   |   |   |   |   |   |   |   |   |   |   |   |--- weights: [0.00, 0.00, 71.00] class: warning
|   |   |   |   |   |   |   |   |   |   |   |   |   |   |--- month >  10.50
|   |   |   |   |   |   |   |   |   |   |   |   |   |   |   |--- weights: [0.00, 55.00, 0.00] class: citation
|   |   |   |   |   |   |   |   |   |   |   |   |--- subject_race_asian/pacific islander >  0.50
|   |   |   |   |   |   |   |   |   |   |   |   |   |--- weights: [0.00, 0.00, 17.00] class: warning
|   |   |   |   |   |   |   |   |   |--- subject_race_black >  0.50
|   |   |   |   |   |   |   |   |   |   |--- subject_age <= 17.50
|   |   |   |   |   |   |   |   |   |   |   |--- weights: [41.00, 0.00, 0.00] class: arrest
|   |   |   |   |   |   |   |   |   |   |--- subject_age >  17.50
|   |   |   |   |   |   |   |   |   |   |   |--- month <= 11.50
|   |   |   |   |   |   |   |   |   |   |   |   |--- search_basis_consent <= 0.50
|   |   |   |   |   |   |   |   |   |   |   |   |   |--- month <= 2.50
|   |   |   |   |   |   |   |   |   |   |   |   |   |   |--- subject_age <= 34.50
|   |   |   |   |   |   |   |   |   |   |   |   |   |   |   |--- weights: [0.00, 0.00, 54.00] class: warning
|   |   |   |   |   |   |   |   |   |   |   |   |   |   |--- subject_age >  34.50
|   |   |   |   |   |   |   |   |   |   |   |   |   |   |   |--- weights: [13.00, 0.00, 0.00] class: arrest
|   |   |   |   |   |   |   |   |   |   |   |   |   |--- month >  2.50
|   |   |   |   |   |   |   |   |   |   |   |   |   |   |--- subject_age <= 21.50
|   |   |   |   |   |   |   |   |   |   |   |   |   |   |   |--- weights: [15.00, 0.00, 0.00] class: arrest
|   |   |   |   |   |   |   |   |   |   |   |   |   |   |--- subject_age >  21.50
|   |   |   |   |   |   |   |   |   |   |   |   |   |   |   |--- reason_for_stop_registration <= 0.50
|   |   |   |   |   |   |   |   |   |   |   |   |   |   |   |   |--- subject_age <= 42.00
|   |   |   |   |   |   |   |   |   |   |   |   |   |   |   |   |   |--- weights: [0.00, 86.00, 0.00] class: citation
|   |   |   |   |   |   |   |   |   |   |   |   |   |   |   |   |--- subject_age >  42.00
|   |   |   |   |   |   |   |   |   |   |   |   |   |   |   |   |   |--- month <= 7.00
|   |   |   |   |   |   |   |   |   |   |   |   |   |   |   |   |   |   |--- weights: [17.00, 0.00, 0.00] class: arrest
|   |   |   |   |   |   |   |   |   |   |   |   |   |   |   |   |   |--- month >  7.00
|   |   |   |   |   |   |   |   |   |   |   |   |   |   |   |   |   |   |--- weights: [0.00, 16.00, 0.00] class: citation
|   |   |   |   |   |   |   |   |   |   |   |   |   |   |   |--- reason_for_stop_registration >  0.50
|   |   |   |   |   |   |   |   |   |   |   |   |   |   |   |   |--- weights: [0.00, 0.00, 12.00] class: warning
|   |   |   |   |   |   |   |   |   |   |   |   |--- search_basis_consent >  0.50
|   |   |   |   |   |   |   |   |   |   |   |   |   |--- reason_for_stop_moving traffic violation <= 0.50
|   |   |   |   |   |   |   |   |   |   |   |   |   |   |--- subject_sex <= 0.50
|   |   |   |   |   |   |   |   |   |   |   |   |   |   |   |--- dayofmonth <= 14.50
|   |   |   |   |   |   |   |   |   |   |   |   |   |   |   |   |--- month <= 7.00
|   |   |   |   |   |   |   |   |   |   |   |   |   |   |   |   |   |--- month <= 4.50
|   |   |   |   |   |   |   |   |   |   |   |   |   |   |   |   |   |   |--- month <= 3.50
|   |   |   |   |   |   |   |   |   |   |   |   |   |   |   |   |   |   |   |--- dayofmonth <= 10.50
|   |   |   |   |   |   |   |   |   |   |   |   |   |   |   |   |   |   |   |   |--- weights: [0.00, 42.00, 0.00] class: citation
|   |   |   |   |   |   |   |   |   |   |   |   |   |   |   |   |   |   |   |--- dayofmonth >  10.50
|   |   |   |   |   |   |   |   |   |   |   |   |   |   |   |   |   |   |   |   |--- weights: [10.00, 0.00, 0.00] class: arrest
|   |   |   |   |   |   |   |   |   |   |   |   |   |   |   |   |   |   |--- month >  3.50
|   |   |   |   |   |   |   |   |   |   |   |   |   |   |   |   |   |   |   |--- reason_for_stop_safety violation <= 0.50
|   |   |   |   |   |   |   |   |   |   |   |   |   |   |   |   |   |   |   |   |--- weights: [0.00, 14.00, 0.00] class: citation
|   |   |   |   |   |   |   |   |   |   |   |   |   |   |   |   |   |   |   |--- reason_for_stop_safety violation >  0.50
|   |   |   |   |   |   |   |   |   |   |   |   |   |   |   |   |   |   |   |   |--- weights: [0.00, 0.00, 26.00] class: warning
|   |   |   |   |   |   |   |   |   |   |   |   |   |   |   |   |   |--- month >  4.50
|   |   |   |   |   |   |   |   |   |   |   |   |   |   |   |   |   |   |--- weights: [29.00, 0.00, 0.00] class: arrest
|   |   |   |   |   |   |   |   |   |   |   |   |   |   |   |   |--- month >  7.00
|   |   |   |   |   |   |   |   |   |   |   |   |   |   |   |   |   |--- weights: [0.00, 0.00, 53.00] class: warning
|   |   |   |   |   |   |   |   |   |   |   |   |   |   |   |--- dayofmonth >  14.50
|   |   |   |   |   |   |   |   |   |   |   |   |   |   |   |   |--- search_person <= 0.50
|   |   |   |   |   |   |   |   |   |   |   |   |   |   |   |   |   |--- weights: [19.00, 0.00, 0.00] class: arrest
|   |   |   |   |   |   |   |   |   |   |   |   |   |   |   |   |--- search_person >  0.50
|   |   |   |   |   |   |   |   |   |   |   |   |   |   |   |   |   |--- month <= 2.50
|   |   |   |   |   |   |   |   |   |   |   |   |   |   |   |   |   |   |--- weights: [15.00, 0.00, 0.00] class: arrest
|   |   |   |   |   |   |   |   |   |   |   |   |   |   |   |   |   |--- month >  2.50
|   |   |   |   |   |   |   |   |   |   |   |   |   |   |   |   |   |   |--- weights: [0.00, 97.00, 0.00] class: citation
|   |   |   |   |   |   |   |   |   |   |   |   |   |   |--- subject_sex >  0.50
|   |   |   |   |   |   |   |   |   |   |   |   |   |   |   |--- dayofmonth <= 23.50
|   |   |   |   |   |   |   |   |   |   |   |   |   |   |   |   |--- reason_for_stop_safety violation <= 0.50
|   |   |   |   |   |   |   |   |   |   |   |   |   |   |   |   |   |--- month <= 1.50
|   |   |   |   |   |   |   |   |   |   |   |   |   |   |   |   |   |   |--- weights: [0.00, 0.00, 15.00] class: warning
|   |   |   |   |   |   |   |   |   |   |   |   |   |   |   |   |   |--- month >  1.50
|   |   |   |   |   |   |   |   |   |   |   |   |   |   |   |   |   |   |--- month <= 10.50
|   |   |   |   |   |   |   |   |   |   |   |   |   |   |   |   |   |   |   |--- weights: [0.00, 273.00, 0.00] class: citation
|   |   |   |   |   |   |   |   |   |   |   |   |   |   |   |   |   |   |--- month >  10.50
|   |   |   |   |   |   |   |   |   |   |   |   |   |   |   |   |   |   |   |--- subject_age <= 32.50
|   |   |   |   |   |   |   |   |   |   |   |   |   |   |   |   |   |   |   |   |--- weights: [0.00, 62.00, 0.00] class: citation
|   |   |   |   |   |   |   |   |   |   |   |   |   |   |   |   |   |   |   |--- subject_age >  32.50
|   |   |   |   |   |   |   |   |   |   |   |   |   |   |   |   |   |   |   |   |--- weights: [0.00, 0.00, 22.00] class: warning
|   |   |   |   |   |   |   |   |   |   |   |   |   |   |   |   |--- reason_for_stop_safety violation >  0.50
|   |   |   |   |   |   |   |   |   |   |   |   |   |   |   |   |   |--- subject_age <= 27.00
|   |   |   |   |   |   |   |   |   |   |   |   |   |   |   |   |   |   |--- subject_age <= 24.50
|   |   |   |   |   |   |   |   |   |   |   |   |   |   |   |   |   |   |   |--- dayofmonth <= 18.00
|   |   |   |   |   |   |   |   |   |   |   |   |   |   |   |   |   |   |   |   |--- subject_age <= 18.50
|   |   |   |   |   |   |   |   |   |   |   |   |   |   |   |   |   |   |   |   |   |--- dayofmonth <= 8.00
|   |   |   |   |   |   |   |   |   |   |   |   |   |   |   |   |   |   |   |   |   |   |--- weights: [13.00, 0.00, 0.00] class: arrest
|   |   |   |   |   |   |   |   |   |   |   |   |   |   |   |   |   |   |   |   |   |--- dayofmonth >  8.00
|   |   |   |   |   |   |   |   |   |   |   |   |   |   |   |   |   |   |   |   |   |   |--- weights: [0.00, 33.00, 0.00] class: citation
|   |   |   |   |   |   |   |   |   |   |   |   |   |   |   |   |   |   |   |   |--- subject_age >  18.50
|   |   |   |   |   |   |   |   |   |   |   |   |   |   |   |   |   |   |   |   |   |--- weights: [0.00, 110.00, 0.00] class: citation
|   |   |   |   |   |   |   |   |   |   |   |   |   |   |   |   |   |   |   |--- dayofmonth >  18.00
|   |   |   |   |   |   |   |   |   |   |   |   |   |   |   |   |   |   |   |   |--- subject_age <= 20.50
|   |   |   |   |   |   |   |   |   |   |   |   |   |   |   |   |   |   |   |   |   |--- weights: [0.00, 16.00, 0.00] class: citation
|   |   |   |   |   |   |   |   |   |   |   |   |   |   |   |   |   |   |   |   |--- subject_age >  20.50
|   |   |   |   |   |   |   |   |   |   |   |   |   |   |   |   |   |   |   |   |   |--- dayofmonth <= 21.00
|   |   |   |   |   |   |   |   |   |   |   |   |   |   |   |   |   |   |   |   |   |   |--- weights: [19.00, 0.00, 0.00] class: arrest
|   |   |   |   |   |   |   |   |   |   |   |   |   |   |   |   |   |   |   |   |   |--- dayofmonth >  21.00
|   |   |   |   |   |   |   |   |   |   |   |   |   |   |   |   |   |   |   |   |   |   |--- weights: [0.00, 13.00, 0.00] class: citation
|   |   |   |   |   |   |   |   |   |   |   |   |   |   |   |   |   |   |--- subject_age >  24.50
|   |   |   |   |   |   |   |   |   |   |   |   |   |   |   |   |   |   |   |--- weekend <= 0.50
|   |   |   |   |   |   |   |   |   |   |   |   |   |   |   |   |   |   |   |   |--- subject_age <= 25.50
|   |   |   |   |   |   |   |   |   |   |   |   |   |   |   |   |   |   |   |   |   |--- weights: [36.00, 0.00, 0.00] class: arrest
|   |   |   |   |   |   |   |   |   |   |   |   |   |   |   |   |   |   |   |   |--- subject_age >  25.50
|   |   |   |   |   |   |   |   |   |   |   |   |   |   |   |   |   |   |   |   |   |--- dayofmonth <= 13.00
|   |   |   |   |   |   |   |   |   |   |   |   |   |   |   |   |   |   |   |   |   |   |--- weights: [0.00, 14.00, 0.00] class: citation
|   |   |   |   |   |   |   |   |   |   |   |   |   |   |   |   |   |   |   |   |   |--- dayofmonth >  13.00
|   |   |   |   |   |   |   |   |   |   |   |   |   |   |   |   |   |   |   |   |   |   |--- weights: [15.00, 0.00, 0.00] class: arrest
|   |   |   |   |   |   |   |   |   |   |   |   |   |   |   |   |   |   |   |--- weekend >  0.50
|   |   |   |   |   |   |   |   |   |   |   |   |   |   |   |   |   |   |   |   |--- weights: [0.00, 19.00, 0.00] class: citation
|   |   |   |   |   |   |   |   |   |   |   |   |   |   |   |   |   |--- subject_age >  27.00
|   |   |   |   |   |   |   |   |   |   |   |   |   |   |   |   |   |   |--- dayofmonth <= 8.00
|   |   |   |   |   |   |   |   |   |   |   |   |   |   |   |   |   |   |   |--- subject_age <= 42.50
|   |   |   |   |   |   |   |   |   |   |   |   |   |   |   |   |   |   |   |   |--- month <= 2.50
|   |   |   |   |   |   |   |   |   |   |   |   |   |   |   |   |   |   |   |   |   |--- weights: [0.00, 40.00, 0.00] class: citation
|   |   |   |   |   |   |   |   |   |   |   |   |   |   |   |   |   |   |   |   |--- month >  2.50
|   |   |   |   |   |   |   |   |   |   |   |   |   |   |   |   |   |   |   |   |   |--- subject_age <= 35.50
|   |   |   |   |   |   |   |   |   |   |   |   |   |   |   |   |   |   |   |   |   |   |--- weights: [0.00, 0.00, 40.00] class: warning
|   |   |   |   |   |   |   |   |   |   |   |   |   |   |   |   |   |   |   |   |   |--- subject_age >  35.50
|   |   |   |   |   |   |   |   |   |   |   |   |   |   |   |   |   |   |   |   |   |   |--- weights: [0.00, 20.00, 0.00] class: citation
|   |   |   |   |   |   |   |   |   |   |   |   |   |   |   |   |   |   |   |--- subject_age >  42.50
|   |   |   |   |   |   |   |   |   |   |   |   |   |   |   |   |   |   |   |   |--- weights: [15.00, 0.00, 0.00] class: arrest
|   |   |   |   |   |   |   |   |   |   |   |   |   |   |   |   |   |   |--- dayofmonth >  8.00
|   |   |   |   |   |   |   |   |   |   |   |   |   |   |   |   |   |   |   |--- weights: [0.00, 186.00, 0.00] class: citation
|   |   |   |   |   |   |   |   |   |   |   |   |   |   |   |--- dayofmonth >  23.50
|   |   |   |   |   |   |   |   |   |   |   |   |   |   |   |   |--- dayofmonth <= 28.50
|   |   |   |   |   |   |   |   |   |   |   |   |   |   |   |   |   |--- month <= 9.00
|   |   |   |   |   |   |   |   |   |   |   |   |   |   |   |   |   |   |--- subject_age <= 29.00
|   |   |   |   |   |   |   |   |   |   |   |   |   |   |   |   |   |   |   |--- weights: [0.00, 63.00, 0.00] class: citation
|   |   |   |   |   |   |   |   |   |   |   |   |   |   |   |   |   |   |--- subject_age >  29.00
|   |   |   |   |   |   |   |   |   |   |   |   |   |   |   |   |   |   |   |--- dayofmonth <= 24.50
|   |   |   |   |   |   |   |   |   |   |   |   |   |   |   |   |   |   |   |   |--- month <= 1.50
|   |   |   |   |   |   |   |   |   |   |   |   |   |   |   |   |   |   |   |   |   |--- weights: [0.00, 0.00, 11.00] class: warning
|   |   |   |   |   |   |   |   |   |   |   |   |   |   |   |   |   |   |   |   |--- month >  1.50
|   |   |   |   |   |   |   |   |   |   |   |   |   |   |   |   |   |   |   |   |   |--- weights: [0.00, 37.00, 0.00] class: citation
|   |   |   |   |   |   |   |   |   |   |   |   |   |   |   |   |   |   |   |--- dayofmonth >  24.50
|   |   |   |   |   |   |   |   |   |   |   |   |   |   |   |   |   |   |   |   |--- month <= 1.50
|   |   |   |   |   |   |   |   |   |   |   |   |   |   |   |   |   |   |   |   |   |--- reason_for_stop_seatbelt violation <= 0.50
|   |   |   |   |   |   |   |   |   |   |   |   |   |   |   |   |   |   |   |   |   |   |--- weights: [0.00, 0.00, 17.00] class: warning
|   |   |   |   |   |   |   |   |   |   |   |   |   |   |   |   |   |   |   |   |   |--- reason_for_stop_seatbelt violation >  0.50
|   |   |   |   |   |   |   |   |   |   |   |   |   |   |   |   |   |   |   |   |   |   |--- weights: [0.00, 17.00, 0.00] class: citation
|   |   |   |   |   |   |   |   |   |   |   |   |   |   |   |   |   |   |   |   |--- month >  1.50
|   |   |   |   |   |   |   |   |   |   |   |   |   |   |   |   |   |   |   |   |   |--- weights: [0.00, 0.00, 63.00] class: warning
|   |   |   |   |   |   |   |   |   |   |   |   |   |   |   |   |   |--- month >  9.00
|   |   |   |   |   |   |   |   |   |   |   |   |   |   |   |   |   |   |--- weights: [0.00, 0.00, 32.00] class: warning
|   |   |   |   |   |   |   |   |   |   |   |   |   |   |   |   |--- dayofmonth >  28.50
|   |   |   |   |   |   |   |   |   |   |   |   |   |   |   |   |   |--- reason_for_stop_registration <= 0.50
|   |   |   |   |   |   |   |   |   |   |   |   |   |   |   |   |   |   |--- weights: [0.00, 129.00, 0.00] class: citation
|   |   |   |   |   |   |   |   |   |   |   |   |   |   |   |   |   |--- reason_for_stop_registration >  0.50
|   |   |   |   |   |   |   |   |   |   |   |   |   |   |   |   |   |   |--- subject_age <= 22.50
|   |   |   |   |   |   |   |   |   |   |   |   |   |   |   |   |   |   |   |--- weights: [9.00, 0.00, 0.00] class: arrest
|   |   |   |   |   |   |   |   |   |   |   |   |   |   |   |   |   |   |--- subject_age >  22.50
|   |   |   |   |   |   |   |   |   |   |   |   |   |   |   |   |   |   |   |--- weights: [0.00, 18.00, 0.00] class: citation
|   |   |   |   |   |   |   |   |   |   |   |   |   |--- reason_for_stop_moving traffic violation >  0.50
|   |   |   |   |   |   |   |   |   |   |   |   |   |   |--- subject_age <= 49.50
|   |   |   |   |   |   |   |   |   |   |   |   |   |   |   |--- month <= 10.50
|   |   |   |   |   |   |   |   |   |   |   |   |   |   |   |   |--- subject_age <= 35.50
|   |   |   |   |   |   |   |   |   |   |   |   |   |   |   |   |   |--- subject_age <= 32.50
|   |   |   |   |   |   |   |   |   |   |   |   |   |   |   |   |   |   |--- search_person <= 0.50
|   |   |   |   |   |   |   |   |   |   |   |   |   |   |   |   |   |   |   |--- weights: [0.00, 352.00, 0.00] class: citation
|   |   |   |   |   |   |   |   |   |   |   |   |   |   |   |   |   |   |--- search_person >  0.50
|   |   |   |   |   |   |   |   |   |   |   |   |   |   |   |   |   |   |   |--- weekend <= 0.50
|   |   |   |   |   |   |   |   |   |   |   |   |   |   |   |   |   |   |   |   |--- dayofmonth <= 27.50
|   |   |   |   |   |   |   |   |   |   |   |   |   |   |   |   |   |   |   |   |   |--- dayofmonth <= 22.50
|   |   |   |   |   |   |   |   |   |   |   |   |   |   |   |   |   |   |   |   |   |   |--- month <= 2.50
|   |   |   |   |   |   |   |   |   |   |   |   |   |   |   |   |   |   |   |   |   |   |   |--- dayofmonth <= 13.00
|   |   |   |   |   |   |   |   |   |   |   |   |   |   |   |   |   |   |   |   |   |   |   |   |--- subject_age <= 21.50
|   |   |   |   |   |   |   |   |   |   |   |   |   |   |   |   |   |   |   |   |   |   |   |   |   |--- weights: [0.00, 13.00, 0.00] class: citation
|   |   |   |   |   |   |   |   |   |   |   |   |   |   |   |   |   |   |   |   |   |   |   |   |--- subject_age >  21.50
|   |   |   |   |   |   |   |   |   |   |   |   |   |   |   |   |   |   |   |   |   |   |   |   |   |--- weights: [34.00, 0.00, 0.00] class: arrest
|   |   |   |   |   |   |   |   |   |   |   |   |   |   |   |   |   |   |   |   |   |   |   |--- dayofmonth >  13.00
|   |   |   |   |   |   |   |   |   |   |   |   |   |   |   |   |   |   |   |   |   |   |   |   |--- dayofmonth <= 15.50
|   |   |   |   |   |   |   |   |   |   |   |   |   |   |   |   |   |   |   |   |   |   |   |   |   |--- weights: [0.00, 0.00, 25.00] class: warning
|   |   |   |   |   |   |   |   |   |   |   |   |   |   |   |   |   |   |   |   |   |   |   |   |--- dayofmonth >  15.50
|   |   |   |   |   |   |   |   |   |   |   |   |   |   |   |   |   |   |   |   |   |   |   |   |   |--- month <= 1.50
|   |   |   |   |   |   |   |   |   |   |   |   |   |   |   |   |   |   |   |   |   |   |   |   |   |   |--- holiday <= 0.50
|   |   |   |   |   |   |   |   |   |   |   |   |   |   |   |   |   |   |   |   |   |   |   |   |   |   |   |--- weights: [0.00, 0.00, 13.00] class: warning
|   |   |   |   |   |   |   |   |   |   |   |   |   |   |   |   |   |   |   |   |   |   |   |   |   |   |--- holiday >  0.50
|   |   |   |   |   |   |   |   |   |   |   |   |   |   |   |   |   |   |   |   |   |   |   |   |   |   |   |--- weights: [0.00, 13.00, 0.00] class: citation
|   |   |   |   |   |   |   |   |   |   |   |   |   |   |   |   |   |   |   |   |   |   |   |   |   |--- month >  1.50
|   |   |   |   |   |   |   |   |   |   |   |   |   |   |   |   |   |   |   |   |   |   |   |   |   |   |--- weights: [0.00, 17.00, 0.00] class: citation
|   |   |   |   |   |   |   |   |   |   |   |   |   |   |   |   |   |   |   |   |   |   |--- month >  2.50
|   |   |   |   |   |   |   |   |   |   |   |   |   |   |   |   |   |   |   |   |   |   |   |--- month <= 3.50
|   |   |   |   |   |   |   |   |   |   |   |   |   |   |   |   |   |   |   |   |   |   |   |   |--- weights: [0.00, 159.00, 0.00] class: citation
|   |   |   |   |   |   |   |   |   |   |   |   |   |   |   |   |   |   |   |   |   |   |   |--- month >  3.50
|   |   |   |   |   |   |   |   |   |   |   |   |   |   |   |   |   |   |   |   |   |   |   |   |--- month <= 5.50
|   |   |   |   |   |   |   |   |   |   |   |   |   |   |   |   |   |   |   |   |   |   |   |   |   |--- dayofmonth <= 11.00
|   |   |   |   |   |   |   |   |   |   |   |   |   |   |   |   |   |   |   |   |   |   |   |   |   |   |--- dayofmonth <= 3.00
|   |   |   |   |   |   |   |   |   |   |   |   |   |   |   |   |   |   |   |   |   |   |   |   |   |   |   |--- weights: [0.00, 67.00, 0.00] class: citation
|   |   |   |   |   |   |   |   |   |   |   |   |   |   |   |   |   |   |   |   |   |   |   |   |   |   |--- dayofmonth >  3.00
|   |   |   |   |   |   |   |   |   |   |   |   |   |   |   |   |   |   |   |   |   |   |   |   |   |   |   |--- dayofmonth <= 8.50
|   |   |   |   |   |   |   |   |   |   |   |   |   |   |   |   |   |   |   |   |   |   |   |   |   |   |   |   |--- subject_sex <= 0.50
|   |   |   |   |   |   |   |   |   |   |   |   |   |   |   |   |   |   |   |   |   |   |   |   |   |   |   |   |   |--- weights: [0.00, 13.00, 0.00] class: citation
|   |   |   |   |   |   |   |   |   |   |   |   |   |   |   |   |   |   |   |   |   |   |   |   |   |   |   |   |--- subject_sex >  0.50
|   |   |   |   |   |   |   |   |   |   |   |   |   |   |   |   |   |   |   |   |   |   |   |   |   |   |   |   |   |--- subject_age <= 23.50
|   |   |   |   |   |   |   |   |   |   |   |   |   |   |   |   |   |   |   |   |   |   |   |   |   |   |   |   |   |   |--- dayofmonth <= 5.50
|   |   |   |   |   |   |   |   |   |   |   |   |   |   |   |   |   |   |   |   |   |   |   |   |   |   |   |   |   |   |   |--- weights: [0.00, 0.00, 12.00] class: warning
|   |   |   |   |   |   |   |   |   |   |   |   |   |   |   |   |   |   |   |   |   |   |   |   |   |   |   |   |   |   |--- dayofmonth >  5.50
|   |   |   |   |   |   |   |   |   |   |   |   |   |   |   |   |   |   |   |   |   |   |   |   |   |   |   |   |   |   |   |--- weights: [0.00, 15.00, 0.00] class: citation
|   |   |   |   |   |   |   |   |   |   |   |   |   |   |   |   |   |   |   |   |   |   |   |   |   |   |   |   |   |--- subject_age >  23.50
|   |   |   |   |   |   |   |   |   |   |   |   |   |   |   |   |   |   |   |   |   |   |   |   |   |   |   |   |   |   |--- weights: [0.00, 0.00, 37.00] class: warning
|   |   |   |   |   |   |   |   |   |   |   |   |   |   |   |   |   |   |   |   |   |   |   |   |   |   |   |--- dayofmonth >  8.50
|   |   |   |   |   |   |   |   |   |   |   |   |   |   |   |   |   |   |   |   |   |   |   |   |   |   |   |   |--- subject_age <= 24.00
|   |   |   |   |   |   |   |   |   |   |   |   |   |   |   |   |   |   |   |   |   |   |   |   |   |   |   |   |   |--- weights: [21.00, 0.00, 0.00] class: arrest
|   |   |   |   |   |   |   |   |   |   |   |   |   |   |   |   |   |   |   |   |   |   |   |   |   |   |   |   |--- subject_age >  24.00
|   |   |   |   |   |   |   |   |   |   |   |   |   |   |   |   |   |   |   |   |   |   |   |   |   |   |   |   |   |--- weights: [0.00, 30.00, 0.00] class: citation
|   |   |   |   |   |   |   |   |   |   |   |   |   |   |   |   |   |   |   |   |   |   |   |   |   |--- dayofmonth >  11.00
|   |   |   |   |   |   |   |   |   |   |   |   |   |   |   |   |   |   |   |   |   |   |   |   |   |   |--- weights: [0.00, 92.00, 0.00] class: citation
|   |   |   |   |   |   |   |   |   |   |   |   |   |   |   |   |   |   |   |   |   |   |   |   |--- month >  5.50
|   |   |   |   |   |   |   |   |   |   |   |   |   |   |   |   |   |   |   |   |   |   |   |   |   |--- dayofmonth <= 14.50
|   |   |   |   |   |   |   |   |   |   |   |   |   |   |   |   |   |   |   |   |   |   |   |   |   |   |--- month <= 9.50
|   |   |   |   |   |   |   |   |   |   |   |   |   |   |   |   |   |   |   |   |   |   |   |   |   |   |   |--- weights: [0.00, 353.00, 0.00] class: citation
|   |   |   |   |   |   |   |   |   |   |   |   |   |   |   |   |   |   |   |   |   |   |   |   |   |   |--- month >  9.50
|   |   |   |   |   |   |   |   |   |   |   |   |   |   |   |   |   |   |   |   |   |   |   |   |   |   |   |--- weights: [0.00, 0.00, 13.00] class: warning
|   |   |   |   |   |   |   |   |   |   |   |   |   |   |   |   |   |   |   |   |   |   |   |   |   |--- dayofmonth >  14.50
|   |   |   |   |   |   |   |   |   |   |   |   |   |   |   |   |   |   |   |   |   |   |   |   |   |   |--- month <= 8.00
|   |   |   |   |   |   |   |   |   |   |   |   |   |   |   |   |   |   |   |   |   |   |   |   |   |   |   |--- dayofmonth <= 16.50
|   |   |   |   |   |   |   |   |   |   |   |   |   |   |   |   |   |   |   |   |   |   |   |   |   |   |   |   |--- weights: [13.00, 0.00, 0.00] class: arrest
|   |   |   |   |   |   |   |   |   |   |   |   |   |   |   |   |   |   |   |   |   |   |   |   |   |   |   |--- dayofmonth >  16.50
|   |   |   |   |   |   |   |   |   |   |   |   |   |   |   |   |   |   |   |   |   |   |   |   |   |   |   |   |--- month <= 6.50
|   |   |   |   |   |   |   |   |   |   |   |   |   |   |   |   |   |   |   |   |   |   |   |   |   |   |   |   |   |--- subject_age <= 21.50
|   |   |   |   |   |   |   |   |   |   |   |   |   |   |   |   |   |   |   |   |   |   |   |   |   |   |   |   |   |   |--- weights: [0.00, 31.00, 0.00] class: citation
|   |   |   |   |   |   |   |   |   |   |   |   |   |   |   |   |   |   |   |   |   |   |   |   |   |   |   |   |   |--- subject_age >  21.50
|   |   |   |   |   |   |   |   |   |   |   |   |   |   |   |   |   |   |   |   |   |   |   |   |   |   |   |   |   |   |--- subject_age <= 27.00
|   |   |   |   |   |   |   |   |   |   |   |   |   |   |   |   |   |   |   |   |   |   |   |   |   |   |   |   |   |   |   |--- weights: [0.00, 0.00, 9.00] class: warning
|   |   |   |   |   |   |   |   |   |   |   |   |   |   |   |   |   |   |   |   |   |   |   |   |   |   |   |   |   |   |--- subject_age >  27.00
|   |   |   |   |   |   |   |   |   |   |   |   |   |   |   |   |   |   |   |   |   |   |   |   |   |   |   |   |   |   |   |--- weights: [0.00, 14.00, 0.00] class: citation
|   |   |   |   |   |   |   |   |   |   |   |   |   |   |   |   |   |   |   |   |   |   |   |   |   |   |   |   |--- month >  6.50
|   |   |   |   |   |   |   |   |   |   |   |   |   |   |   |   |   |   |   |   |   |   |   |   |   |   |   |   |   |--- subject_age <= 31.50
|   |   |   |   |   |   |   |   |   |   |   |   |   |   |   |   |   |   |   |   |   |   |   |   |   |   |   |   |   |   |--- dayofmonth <= 18.50
|   |   |   |   |   |   |   |   |   |   |   |   |   |   |   |   |   |   |   |   |   |   |   |   |   |   |   |   |   |   |   |--- weights: [17.00, 0.00, 0.00] class: arrest
|   |   |   |   |   |   |   |   |   |   |   |   |   |   |   |   |   |   |   |   |   |   |   |   |   |   |   |   |   |   |--- dayofmonth >  18.50
|   |   |   |   |   |   |   |   |   |   |   |   |   |   |   |   |   |   |   |   |   |   |   |   |   |   |   |   |   |   |   |--- subject_age <= 25.50
|   |   |   |   |   |   |   |   |   |   |   |   |   |   |   |   |   |   |   |   |   |   |   |   |   |   |   |   |   |   |   |   |--- weights: [11.00, 0.00, 0.00] class: arrest
|   |   |   |   |   |   |   |   |   |   |   |   |   |   |   |   |   |   |   |   |   |   |   |   |   |   |   |   |   |   |   |--- subject_age >  25.50
|   |   |   |   |   |   |   |   |   |   |   |   |   |   |   |   |   |   |   |   |   |   |   |   |   |   |   |   |   |   |   |   |--- weights: [0.00, 14.00, 0.00] class: citation
|   |   |   |   |   |   |   |   |   |   |   |   |   |   |   |   |   |   |   |   |   |   |   |   |   |   |   |   |   |--- subject_age >  31.50
|   |   |   |   |   |   |   |   |   |   |   |   |   |   |   |   |   |   |   |   |   |   |   |   |   |   |   |   |   |   |--- weights: [0.00, 19.00, 0.00] class: citation
|   |   |   |   |   |   |   |   |   |   |   |   |   |   |   |   |   |   |   |   |   |   |   |   |   |   |--- month >  8.00
|   |   |   |   |   |   |   |   |   |   |   |   |   |   |   |   |   |   |   |   |   |   |   |   |   |   |   |--- weights: [0.00, 50.00, 0.00] class: citation
|   |   |   |   |   |   |   |   |   |   |   |   |   |   |   |   |   |   |   |   |   |--- dayofmonth >  22.50
|   |   |   |   |   |   |   |   |   |   |   |   |   |   |   |   |   |   |   |   |   |   |--- subject_age <= 20.00
|   |   |   |   |   |   |   |   |   |   |   |   |   |   |   |   |   |   |   |   |   |   |   |--- weights: [0.00, 0.00, 30.00] class: warning
|   |   |   |   |   |   |   |   |   |   |   |   |   |   |   |   |   |   |   |   |   |   |--- subject_age >  20.00
|   |   |   |   |   |   |   |   |   |   |   |   |   |   |   |   |   |   |   |   |   |   |   |--- dayofmonth <= 24.50
|   |   |   |   |   |   |   |   |   |   |   |   |   |   |   |   |   |   |   |   |   |   |   |   |--- weights: [26.00, 0.00, 0.00] class: arrest
|   |   |   |   |   |   |   |   |   |   |   |   |   |   |   |   |   |   |   |   |   |   |   |--- dayofmonth >  24.50
|   |   |   |   |   |   |   |   |   |   |   |   |   |   |   |   |   |   |   |   |   |   |   |   |--- subject_age <= 21.50
|   |   |   |   |   |   |   |   |   |   |   |   |   |   |   |   |   |   |   |   |   |   |   |   |   |--- weights: [11.00, 0.00, 0.00] class: arrest
|   |   |   |   |   |   |   |   |   |   |   |   |   |   |   |   |   |   |   |   |   |   |   |   |--- subject_age >  21.50
|   |   |   |   |   |   |   |   |   |   |   |   |   |   |   |   |   |   |   |   |   |   |   |   |   |--- subject_age <= 29.00
|   |   |   |   |   |   |   |   |   |   |   |   |   |   |   |   |   |   |   |   |   |   |   |   |   |   |--- weights: [0.00, 89.00, 0.00] class: citation
|   |   |   |   |   |   |   |   |   |   |   |   |   |   |   |   |   |   |   |   |   |   |   |   |   |--- subject_age >  29.00
|   |   |   |   |   |   |   |   |   |   |   |   |   |   |   |   |   |   |   |   |   |   |   |   |   |   |--- subject_age <= 31.00
|   |   |   |   |   |   |   |   |   |   |   |   |   |   |   |   |   |   |   |   |   |   |   |   |   |   |   |--- weights: [0.00, 0.00, 16.00] class: warning
|   |   |   |   |   |   |   |   |   |   |   |   |   |   |   |   |   |   |   |   |   |   |   |   |   |   |--- subject_age >  31.00
|   |   |   |   |   |   |   |   |   |   |   |   |   |   |   |   |   |   |   |   |   |   |   |   |   |   |   |--- weights: [0.00, 18.00, 0.00] class: citation
|   |   |   |   |   |   |   |   |   |   |   |   |   |   |   |   |   |   |   |   |--- dayofmonth >  27.50
|   |   |   |   |   |   |   |   |   |   |   |   |   |   |   |   |   |   |   |   |   |--- weights: [0.00, 194.00, 0.00] class: citation
|   |   |   |   |   |   |   |   |   |   |   |   |   |   |   |   |   |   |   |--- weekend >  0.50
|   |   |   |   |   |   |   |   |   |   |   |   |   |   |   |   |   |   |   |   |--- dayofmonth <= 30.50
|   |   |   |   |   |   |   |   |   |   |   |   |   |   |   |   |   |   |   |   |   |--- dayofmonth <= 2.50
|   |   |   |   |   |   |   |   |   |   |   |   |   |   |   |   |   |   |   |   |   |   |--- month <= 6.50
|   |   |   |   |   |   |   |   |   |   |   |   |   |   |   |   |   |   |   |   |   |   |   |--- weights: [0.00, 14.00, 0.00] class: citation
|   |   |   |   |   |   |   |   |   |   |   |   |   |   |   |   |   |   |   |   |   |   |--- month >  6.50
|   |   |   |   |   |   |   |   |   |   |   |   |   |   |   |   |   |   |   |   |   |   |   |--- weights: [11.00, 0.00, 0.00] class: arrest
|   |   |   |   |   |   |   |   |   |   |   |   |   |   |   |   |   |   |   |   |   |--- dayofmonth >  2.50
|   |   |   |   |   |   |   |   |   |   |   |   |   |   |   |   |   |   |   |   |   |   |--- weights: [0.00, 396.00, 0.00] class: citation
|   |   |   |   |   |   |   |   |   |   |   |   |   |   |   |   |   |   |   |   |--- dayofmonth >  30.50
|   |   |   |   |   |   |   |   |   |   |   |   |   |   |   |   |   |   |   |   |   |--- month <= 2.00
|   |   |   |   |   |   |   |   |   |   |   |   |   |   |   |   |   |   |   |   |   |   |--- weights: [14.00, 0.00, 0.00] class: arrest
|   |   |   |   |   |   |   |   |   |   |   |   |   |   |   |   |   |   |   |   |   |--- month >  2.00
|   |   |   |   |   |   |   |   |   |   |   |   |   |   |   |   |   |   |   |   |   |   |--- weights: [0.00, 19.00, 0.00] class: citation
|   |   |   |   |   |   |   |   |   |   |   |   |   |   |   |   |   |--- subject_age >  32.50
|   |   |   |   |   |   |   |   |   |   |   |   |   |   |   |   |   |   |--- subject_age <= 33.50
|   |   |   |   |   |   |   |   |   |   |   |   |   |   |   |   |   |   |   |--- dayofmonth <= 26.00
|   |   |   |   |   |   |   |   |   |   |   |   |   |   |   |   |   |   |   |   |--- dayofmonth <= 15.00
|   |   |   |   |   |   |   |   |   |   |   |   |   |   |   |   |   |   |   |   |   |--- weights: [0.00, 0.00, 12.00] class: warning
|   |   |   |   |   |   |   |   |   |   |   |   |   |   |   |   |   |   |   |   |--- dayofmonth >  15.00
|   |   |   |   |   |   |   |   |   |   |   |   |   |   |   |   |   |   |   |   |   |--- weights: [14.00, 0.00, 0.00] class: arrest
|   |   |   |   |   |   |   |   |   |   |   |   |   |   |   |   |   |   |   |--- dayofmonth >  26.00
|   |   |   |   |   |   |   |   |   |   |   |   |   |   |   |   |   |   |   |   |--- weights: [0.00, 0.00, 21.00] class: warning
|   |   |   |   |   |   |   |   |   |   |   |   |   |   |   |   |   |   |--- subject_age >  33.50
|   |   |   |   |   |   |   |   |   |   |   |   |   |   |   |   |   |   |   |--- subject_sex <= 0.50
|   |   |   |   |   |   |   |   |   |   |   |   |   |   |   |   |   |   |   |   |--- weights: [0.00, 0.00, 17.00] class: warning
|   |   |   |   |   |   |   |   |   |   |   |   |   |   |   |   |   |   |   |--- subject_sex >  0.50
|   |   |   |   |   |   |   |   |   |   |   |   |   |   |   |   |   |   |   |   |--- dayofmonth <= 1.50
|   |   |   |   |   |   |   |   |   |   |   |   |   |   |   |   |   |   |   |   |   |--- weights: [10.00, 0.00, 0.00] class: arrest
|   |   |   |   |   |   |   |   |   |   |   |   |   |   |   |   |   |   |   |   |--- dayofmonth >  1.50
|   |   |   |   |   |   |   |   |   |   |   |   |   |   |   |   |   |   |   |   |   |--- weights: [0.00, 131.00, 0.00] class: citation
|   |   |   |   |   |   |   |   |   |   |   |   |   |   |   |   |--- subject_age >  35.50
|   |   |   |   |   |   |   |   |   |   |   |   |   |   |   |   |   |--- dayofmonth <= 27.00
|   |   |   |   |   |   |   |   |   |   |   |   |   |   |   |   |   |   |--- dayofmonth <= 6.50
|   |   |   |   |   |   |   |   |   |   |   |   |   |   |   |   |   |   |   |--- dayofmonth <= 5.50
|   |   |   |   |   |   |   |   |   |   |   |   |   |   |   |   |   |   |   |   |--- weights: [0.00, 111.00, 0.00] class: citation
|   |   |   |   |   |   |   |   |   |   |   |   |   |   |   |   |   |   |   |--- dayofmonth >  5.50
|   |   |   |   |   |   |   |   |   |   |   |   |   |   |   |   |   |   |   |   |--- subject_age <= 42.50
|   |   |   |   |   |   |   |   |   |   |   |   |   |   |   |   |   |   |   |   |   |--- weights: [0.00, 16.00, 0.00] class: citation
|   |   |   |   |   |   |   |   |   |   |   |   |   |   |   |   |   |   |   |   |--- subject_age >  42.50
|   |   |   |   |   |   |   |   |   |   |   |   |   |   |   |   |   |   |   |   |   |--- weights: [0.00, 0.00, 16.00] class: warning
|   |   |   |   |   |   |   |   |   |   |   |   |   |   |   |   |   |   |--- dayofmonth >  6.50
|   |   |   |   |   |   |   |   |   |   |   |   |   |   |   |   |   |   |   |--- weights: [0.00, 442.00, 0.00] class: citation
|   |   |   |   |   |   |   |   |   |   |   |   |   |   |   |   |   |--- dayofmonth >  27.00
|   |   |   |   |   |   |   |   |   |   |   |   |   |   |   |   |   |   |--- dayofmonth <= 29.00
|   |   |   |   |   |   |   |   |   |   |   |   |   |   |   |   |   |   |   |--- weekend <= 0.50
|   |   |   |   |   |   |   |   |   |   |   |   |   |   |   |   |   |   |   |   |--- weights: [0.00, 0.00, 13.00] class: warning
|   |   |   |   |   |   |   |   |   |   |   |   |   |   |   |   |   |   |   |--- weekend >  0.50
|   |   |   |   |   |   |   |   |   |   |   |   |   |   |   |   |   |   |   |   |--- weights: [0.00, 12.00, 0.00] class: citation
|   |   |   |   |   |   |   |   |   |   |   |   |   |   |   |   |   |   |--- dayofmonth >  29.00
|   |   |   |   |   |   |   |   |   |   |   |   |   |   |   |   |   |   |   |--- weights: [0.00, 41.00, 0.00] class: citation
|   |   |   |   |   |   |   |   |   |   |   |   |   |   |   |--- month >  10.50
|   |   |   |   |   |   |   |   |   |   |   |   |   |   |   |   |--- subject_age <= 20.50
|   |   |   |   |   |   |   |   |   |   |   |   |   |   |   |   |   |--- weights: [0.00, 0.00, 38.00] class: warning
|   |   |   |   |   |   |   |   |   |   |   |   |   |   |   |   |--- subject_age >  20.50
|   |   |   |   |   |   |   |   |   |   |   |   |   |   |   |   |   |--- dayofmonth <= 12.50
|   |   |   |   |   |   |   |   |   |   |   |   |   |   |   |   |   |   |--- weights: [29.00, 0.00, 0.00] class: arrest
|   |   |   |   |   |   |   |   |   |   |   |   |   |   |   |   |   |--- dayofmonth >  12.50
|   |   |   |   |   |   |   |   |   |   |   |   |   |   |   |   |   |   |--- subject_sex <= 0.50
|   |   |   |   |   |   |   |   |   |   |   |   |   |   |   |   |   |   |   |--- weights: [15.00, 0.00, 0.00] class: arrest
|   |   |   |   |   |   |   |   |   |   |   |   |   |   |   |   |   |   |--- subject_sex >  0.50
|   |   |   |   |   |   |   |   |   |   |   |   |   |   |   |   |   |   |   |--- weights: [0.00, 99.00, 0.00] class: citation
|   |   |   |   |   |   |   |   |   |   |   |   |   |   |--- subject_age >  49.50
|   |   |   |   |   |   |   |   |   |   |   |   |   |   |   |--- subject_age <= 51.50
|   |   |   |   |   |   |   |   |   |   |   |   |   |   |   |   |--- dayofmonth <= 24.00
|   |   |   |   |   |   |   |   |   |   |   |   |   |   |   |   |   |--- dayofmonth <= 12.00
|   |   |   |   |   |   |   |   |   |   |   |   |   |   |   |   |   |   |--- search_person <= 0.50
|   |   |   |   |   |   |   |   |   |   |   |   |   |   |   |   |   |   |   |--- weights: [0.00, 0.00, 16.00] class: warning
|   |   |   |   |   |   |   |   |   |   |   |   |   |   |   |   |   |   |--- search_person >  0.50
|   |   |   |   |   |   |   |   |   |   |   |   |   |   |   |   |   |   |   |--- weights: [17.00, 0.00, 0.00] class: arrest
|   |   |   |   |   |   |   |   |   |   |   |   |   |   |   |   |   |--- dayofmonth >  12.00
|   |   |   |   |   |   |   |   |   |   |   |   |   |   |   |   |   |   |--- weights: [0.00, 34.00, 0.00] class: citation
|   |   |   |   |   |   |   |   |   |   |   |   |   |   |   |   |--- dayofmonth >  24.00
|   |   |   |   |   |   |   |   |   |   |   |   |   |   |   |   |   |--- weights: [42.00, 0.00, 0.00] class: arrest
